{"learner":{"attributes":{"best_iteration":"299","best_ntree_limit":"300","scikit_learn":"{\"use_label_encoder\": null, \"n_estimators\": 300, \"objective\": \"binary:logistic\", \"max_depth\": null, \"max_leaves\": null, \"max_bin\": null, \"grow_policy\": null, \"learning_rate\": 0.01, \"verbosity\": null, \"booster\": null, \"tree_method\": null, \"gamma\": null, \"min_child_weight\": 10, \"max_delta_step\": null, \"subsample\": null, \"sampling_method\": null, \"colsample_bytree\": null, \"colsample_bylevel\": null, \"colsample_bynode\": null, \"reg_alpha\": null, \"reg_lambda\": null, \"scale_pos_weight\": null, \"base_score\": null, \"missing\": NaN, \"num_parallel_tree\": null, \"random_state\": null, \"n_jobs\": null, \"monotone_constraints\": null, \"interaction_constraints\": null, \"importance_type\": null, \"gpu_id\": 0, \"validate_parameters\": null, \"predictor\": null, \"enable_categorical\": false, \"feature_types\": null, \"max_cat_to_onehot\": null, \"max_cat_threshold\": null, \"eval_metric\": null, \"early_stopping_rounds\": null, \"callbacks\": null, \"classes_\": [0.0, 1.0], \"n_classes_\": 2, \"_estimator_type\": \"classifier\"}"},"feature_names":[],"feature_types":[],"gradient_booster":{"model":{"gbtree_model_param":{"num_parallel_tree":"1","num_trees":"300","size_leaf_vector":"0"},"tree_info":[0,0,0,0,0,0,0,0,0,0,0,0,0,0,0,0,0,0,0,0,0,0,0,0,0,0,0,0,0,0,0,0,0,0,0,0,0,0,0,0,0,0,0,0,0,0,0,0,0,0,0,0,0,0,0,0,0,0,0,0,0,0,0,0,0,0,0,0,0,0,0,0,0,0,0,0,0,0,0,0,0,0,0,0,0,0,0,0,0,0,0,0,0,0,0,0,0,0,0,0,0,0,0,0,0,0,0,0,0,0,0,0,0,0,0,0,0,0,0,0,0,0,0,0,0,0,0,0,0,0,0,0,0,0,0,0,0,0,0,0,0,0,0,0,0,0,0,0,0,0,0,0,0,0,0,0,0,0,0,0,0,0,0,0,0,0,0,0,0,0,0,0,0,0,0,0,0,0,0,0,0,0,0,0,0,0,0,0,0,0,0,0,0,0,0,0,0,0,0,0,0,0,0,0,0,0,0,0,0,0,0,0,0,0,0,0,0,0,0,0,0,0,0,0,0,0,0,0,0,0,0,0,0,0,0,0,0,0,0,0,0,0,0,0,0,0,0,0,0,0,0,0,0,0,0,0,0,0,0,0,0,0,0,0,0,0,0,0,0,0,0,0,0,0,0,0,0,0,0,0,0,0,0,0,0,0,0,0,0,0,0,0,0,0,0,0,0,0,0,0],"trees":[{"base_weights":[-0E0,-5.442957E-1,2.2276324E-1,2.2823985E-1,-6.390081E-1,7.264047E-1,6.649966E-2,6.666667E-1,-8.129032E-1,-3.1516352E-1,-9.376147E-1,4.4104803E-1,1.3072625E0,-4.113239E-1,2.462406E-1,9.315961E-1,-6.666667E-1,-1.3846154E0,-2.2222222E-1,1.107438E0,-4.0504998E-1,-1.3370787E0,-7.418478E-1,-6.434783E-1,5.124927E-1,-5.915493E-1,1.4637681E0,-5.8178437E-1,1.0393701E0,-3.4606743E-1,4.0253314E-1,-3.3962265E-1,1.1782945E0,1.8235294E0,1.754386E-1,1.5862069E0,-4.6670276E-1,-1.4166666E0,-0E0,-2.2222222E-1,-1.0544662E0,-1.826087E0,1.369863E-1,1.007752E0,3.67713E-1,1.6097561E0,6.666667E-1,-7.8350514E-1,2.8292683E-1,1.0526316E-1,1.4065934E0,-1.4689265E-1,-1.1046932E0,5.140946E-1,-1.3547647E-1,1.6666667E-1,1.3831775E0,-6.086956E-1,3.939394E-1,-6.122449E-1,-1.5432526E0,3.3333334E-1,-7.114094E-1,-1.3569938E0,-7.17833E-1,1.7021276E-1,1.2592592E0,-1.0769231E0,4.248062E-1,7.160494E-1,1.7161291E0,-2.5974026E-2,1.483871E0,-1.1434034E0,-2.4431819E-1,1.7910447E-2,1.392405E0,1.7037038E0,5.0980395E-1,-9.5477384E-1,3.9215688E-2,-1.3274336E0,-1.0909091E-1,9.9188454E-2,6.627718E-1,-8.4039086E-1,2.4647887E-1],"categories":[],"categories_nodes":[],"categories_segments":[],"categories_sizes":[],"default_left":[1,1,1,1,1,1,1,1,1,1,1,1,1,1,1,1,0,0,0,1,1,1,1,1,1,0,1,1,1,1,1,0,1,0,0,0,1,1,0,1,1,0,0,1,1,1,1,1,1,0,1,1,1,1,1,0,0,0,0,0,0,0,0,0,0,0,0,0,0,0,0,0,0,0,0,0,0,0,0,0,0,0,0,0,0,0,0],"id":0,"left_children":[1,3,5,7,9,11,13,15,17,19,21,23,25,27,29,31,-1,-1,-1,33,35,37,39,41,43,-1,45,47,49,51,53,-1,55,-1,-1,-1,57,59,-1,61,63,-1,-1,65,67,69,71,73,75,-1,77,79,81,83,85,-1,-1,-1,-1,-1,-1,-1,-1,-1,-1,-1,-1,-1,-1,-1,-1,-1,-1,-1,-1,-1,-1,-1,-1,-1,-1,-1,-1,-1,-1,-1,-1],"loss_changes":[4.9130127E2,8.624707E1,2.2623622E2,5.9540043E1,1.0109668E2,1.1225888E2,1.8866061E2,3.2942455E1,1.2778166E1,6.49603E1,4.1628113E1,3.581729E1,6.73587E1,1.4909993E2,1.4788635E2,2.4469566E1,0E0,0E0,0E0,1.9868832E1,5.9085083E1,1.8941925E1,5.9545273E1,2.6785946E1,3.0479866E1,0E0,2.3014862E1,9.4065125E1,2.1634079E1,5.026705E1,7.589133E1,0E0,1.3138092E1,0E0,0E0,0E0,5.6667984E1,1.6162354E1,0E0,3.814914E1,2.2398392E1,0E0,0E0,2.016578E1,2.8046677E1,1.5336456E1,1.9142017E1,8.442453E1,3.0113127E1,0E0,1.1254707E1,3.9956276E1,1.5212135E1,6.448984E1,5.8835415E1,0E0,0E0,0E0,0E0,0E0,0E0,0E0,0E0,0E0,0E0,0E0,0E0,0E0,0E0,0E0,0E0,0E0,0E0,0E0,0E0,0E0,0E0,0E0,0E0,0E0,0E0,0E0,0E0,0E0,0E0,0E0,0E0],"parents":[2147483647,0,0,1,1,2,2,3,3,4,4,5,5,6,6,7,7,8,8,9,9,10,10,11,11,12,12,13,13,14,14,15,15,19,19,20,20,21,21,22,22,23,23,24,24,26,26,27,27,28,28,29,29,30,30,32,32,36,36,37,37,39,39,40,40,43,43,44,44,45,45,46,46,47,47,48,48,50,50,51,51,52,52,53,53,54,54],"right_children":[2,4,6,8,10,12,14,16,18,20,22,24,26,28,30,32,-1,-1,-1,34,36,38,40,42,44,-1,46,48,50,52,54,-1,56,-1,-1,-1,58,60,-1,62,64,-1,-1,66,68,70,72,74,76,-1,78,80,82,84,86,-1,-1,-1,-1,-1,-1,-1,-1,-1,-1,-1,-1,-1,-1,-1,-1,-1,-1,-1,-1,-1,-1,-1,-1,-1,-1,-1,-1,-1,-1,-1,-1],"split_conditions":[4.2883563E0,-7.819411E-1,-3.3766454E-1,4.3570614E-1,8.341162E-1,1.8327742E0,-6.099783E-1,1.6526728E0,-1.1353591E-1,-1.4134679E0,4.4884312E-1,-2.2719364E0,-2.4317565E0,1.7646017E0,1.042305E0,-6.3985314E0,-6.666667E-3,-1.3846154E-2,-2.2222223E-3,-7.2678623E0,-1.141222E0,4.7023473E0,1.3998178E-1,6.371745E-1,-4.903788E-1,-5.915493E-3,-2.9581046E0,1.0081463E0,-2.8368917E0,7.362287E-1,3.382398E0,-3.3962263E-3,3.8836484E-3,1.8235294E-2,1.7543859E-3,1.5862068E-2,2.9960306E0,-1.1837857E0,-0E0,4.152823E-3,2.7980977E-1,-1.826087E-2,1.3698629E-3,3.5208874E0,-3.4183972E0,-1.3623025E0,-1.9207952E0,-5.066346E-2,2.3654017E0,1.0526315E-3,8.630246E-1,-1.854527E-1,-1.724251E0,4.9187052E-1,2.2895617E0,1.6666667E-3,1.3831775E-2,-6.0869562E-3,3.939394E-3,-6.122449E-3,-1.5432525E-2,3.3333334E-3,-7.1140938E-3,-1.3569938E-2,-7.17833E-3,1.7021275E-3,1.2592592E-2,-1.0769231E-2,4.248062E-3,7.1604936E-3,1.7161291E-2,-2.5974025E-4,1.48387095E-2,-1.14340335E-2,-2.4431818E-3,1.7910446E-4,1.392405E-2,1.7037038E-2,5.0980393E-3,-9.547738E-3,3.9215686E-4,-1.3274335E-2,-1.0909091E-3,9.918845E-4,6.627718E-3,-8.403908E-3,2.4647887E-3],"split_indices":[181,143,243,184,227,506,177,131,595,833,68,68,122,67,242,721,0,0,0,440,1333,1,84,106,305,0,600,74,2,236,83,0,448,0,0,0,305,308,0,709,134,0,0,421,182,515,100,176,265,0,307,725,200,466,226,0,0,0,0,0,0,0,0,0,0,0,0,0,0,0,0,0,0,0,0,0,0,0,0,0,0,0,0,0,0,0,0],"split_type":[0,0,0,0,0,0,0,0,0,0,0,0,0,0,0,0,0,0,0,0,0,0,0,0,0,0,0,0,0,0,0,0,0,0,0,0,0,0,0,0,0,0,0,0,0,0,0,0,0,0,0,0,0,0,0,0,0,0,0,0,0,0,0,0,0,0,0,0,0,0,0,0,0,0,0,0,0,0,0,0,0,0,0,0,0,0,0],"sum_hessian":[4.05E3,1.17575E3,2.87425E3,1.2825E2,1.0475E3,6.7975E2,2.1945E3,9.05E1,3.775E1,5.035E2,5.44E2,4.57E2,2.2275E2,5.995E2,1.595E3,7.575E1,1.475E1,1.85E1,1.925E1,2.925E1,4.7425E2,1.77E2,3.67E2,2.775E1,4.2925E2,1.675E1,2.06E2,5.37E2,6.25E1,3.3275E2,1.26225E3,1.225E1,6.35E1,1.6E1,1.325E1,1.35E1,4.6075E2,1.67E2,1E1,1.385E2,2.285E2,1.05E1,1.725E1,9.575E1,3.335E2,1.7325E2,3.275E1,4.355E2,1.015E2,1.8E1,4.45E1,2.645E2,6.825E1,1.0455E3,2.1675E2,1.1E1,5.25E1,3.9575E2,6.5E1,2.35E1,1.435E2,6.5E1,7.35E1,1.1875E2,1.0975E2,2.25E1,7.325E1,1.2E1,3.215E2,1.925E1,1.54E2,1.825E1,1.45E1,2.605E2,1.75E2,8.275E1,1.875E1,3.275E1,1.175E1,4.875E1,2.1575E2,5.55E1,1.275E1,2.7625E2,7.6925E2,7.575E1,1.41E2],"tree_param":{"num_deleted":"0","num_feature":"4020","num_nodes":"87","size_leaf_vector":"0"}},{"base_weights":[5.808869E-7,-5.388846E-1,2.2054784E-1,2.258816E-1,-6.3264376E-1,-6.0174307E-3,5.613162E-1,6.6007924E-1,-8.052081E-1,-3.1194893E-1,-9.283518E-1,-7.0508754E-1,9.856791E-2,7.3663425E-1,-5.992002E-1,9.224688E-1,-6.6043013E-1,-1.3715421E0,-2.201101E-1,1.0970734E0,-4.0097472E-1,-1.3238946E0,-7.3451203E-1,-1.2090216E0,-3.7256968E-1,-4.502259E-1,2.0286587E-1,1.0702463E0,4.9855044E-1,3.0047655E-1,-1.1698902E0,-3.3648357E-1,1.1667978E0,1.8069891E0,1.7322978E-1,1.571531E0,-4.6204442E-1,-1.402702E0,-0E0,-2.2002873E-1,-1.0440434E0,-1.4967932E0,-5.199161E-1,-8.42253E-1,9.235502E-2,-7.0593894E-1,9.2035097E-1,1.7597106E0,1.7100686E-1,4.7416747E-1,1.2392848E0,3.413554E-1,1.0534164E0,-1.23094186E-1,1.5375948E0,3.6734092E-1,-1.4139093E0,1.6513889E-1,1.369669E0,-6.026297E-1,3.9006117E-1,-6.063779E-1,-1.5280179E0,3.3005142E-1,-7.043993E-1,-1.3435987E0,-7.107286E-1,-1.689662E0,-7.113926E-1,-1.2506448E0,2.870917E-1,-1.3059559E0,3.909148E-2,-4.24035E-1,8.1129897E-1,-9.3275225E-1,2.0742184E-1,1.743674E0,-5.562079E-3,2.0546491E-1,-9.7914886E-1,-1.0150685E0,6.9086015E-1,-4.1474718E-1,1.2990263E0,4.4850343E-1,-7.560839E-1,1.4066129E0,5.2373886E-1,-9.0481716E-1,5.3192323E-1,4.0489867E-2,-1.6394533E0],"categories":[],"categories_nodes":[],"categories_segments":[],"categories_sizes":[],"default_left":[1,1,1,1,1,1,1,1,1,1,1,1,1,1,1,1,0,0,0,1,1,1,1,1,1,1,1,1,1,1,1,0,1,0,0,0,1,1,0,1,1,1,1,1,1,1,1,0,1,1,1,1,1,1,0,0,1,0,0,0,0,0,0,0,0,0,0,0,0,0,0,0,0,0,0,0,0,0,0,0,0,0,0,0,0,0,0,0,0,0,0,0,0],"id":1,"left_children":[1,3,5,7,9,11,13,15,17,19,21,23,25,27,29,31,-1,-1,-1,33,35,37,39,41,43,45,47,49,51,53,55,-1,57,-1,-1,-1,59,61,-1,63,65,67,69,71,73,75,77,-1,79,81,83,85,87,89,-1,-1,91,-1,-1,-1,-1,-1,-1,-1,-1,-1,-1,-1,-1,-1,-1,-1,-1,-1,-1,-1,-1,-1,-1,-1,-1,-1,-1,-1,-1,-1,-1,-1,-1,-1,-1,-1,-1],"loss_changes":[4.815704E2,8.451849E1,2.219873E2,5.8394676E1,9.913965E1,1.26406334E2,2.3405905E2,3.2311924E1,1.2538042E1,6.3723286E1,4.08125E1,3.7251602E1,8.6176384E1,7.873364E1,7.800749E1,2.4000008E1,0E0,0E0,0E0,1.9525589E1,5.7974304E1,1.8570312E1,5.8372574E1,1.6870605E1,2.9993753E1,8.493695E1,6.2417065E1,4.1201508E1,5.0599197E1,3.1367153E1,3.531064E1,0E0,1.2880203E1,0E0,0E0,0E0,5.554927E1,1.58376465E1,0E0,3.740094E1,2.1959091E1,8.227386E0,1.672312E1,2.7943275E1,2.6238762E1,4.229841E1,2.9167713E1,0E0,4.9354454E1,3.0793148E1,3.2405396E1,5.4046837E1,2.330275E1,2.3650793E1,0E0,0E0,2.6390472E1,0E0,0E0,0E0,0E0,0E0,0E0,0E0,0E0,0E0,0E0,0E0,0E0,0E0,0E0,0E0,0E0,0E0,0E0,0E0,0E0,0E0,0E0,0E0,0E0,0E0,0E0,0E0,0E0,0E0,0E0,0E0,0E0,0E0,0E0,0E0,0E0],"parents":[2147483647,0,0,1,1,2,2,3,3,4,4,5,5,6,6,7,7,8,8,9,9,10,10,11,11,12,12,13,13,14,14,15,15,19,19,20,20,21,21,22,22,23,23,24,24,25,25,26,26,27,27,28,28,29,29,30,30,32,32,36,36,37,37,39,39,40,40,41,41,42,42,43,43,44,44,45,45,46,46,48,48,49,49,50,50,51,51,52,52,53,53,56,56],"right_children":[2,4,6,8,10,12,14,16,18,20,22,24,26,28,30,32,-1,-1,-1,34,36,38,40,42,44,46,48,50,52,54,56,-1,58,-1,-1,-1,60,62,-1,64,66,68,70,72,74,76,78,-1,80,82,84,86,88,90,-1,-1,92,-1,-1,-1,-1,-1,-1,-1,-1,-1,-1,-1,-1,-1,-1,-1,-1,-1,-1,-1,-1,-1,-1,-1,-1,-1,-1,-1,-1,-1,-1,-1,-1,-1,-1,-1,-1],"split_conditions":[4.2883563E0,-7.819411E-1,1.6817267E0,4.3570614E-1,8.341162E-1,-7.7284867E-1,4.2394876E0,1.6526728E0,-1.1353591E-1,-1.4134679E0,4.4884312E-1,-5.623788E-1,-9.133863E-1,4.3149704E-1,5.098048E0,-6.3985314E0,-6.6043013E-3,-1.3715421E-2,-2.201101E-3,-7.975957E0,-1.141222E0,4.7023473E0,1.3998178E-1,1.0303108E-1,1.904879E-2,1.2682159E0,-1.2100459E0,2.959313E0,2.5449915E0,5.4948378E0,-1.0831856E0,-3.3648356E-3,3.8836484E-3,1.8069891E-2,1.7322978E-3,1.571531E-2,2.9960306E0,-1.1837857E0,-0E0,4.152823E-3,2.7980977E-1,2.6710117E-1,-2.4310988E-1,5.2463226E0,-2.6457906E-1,2.242566E-1,-8.3393836E-1,1.7597105E-2,1.2818067E-2,-9.366135E-1,-2.67164E0,3.8431468E0,-2.7950559E0,-7.377444E-2,1.5375948E-2,3.673409E-3,-1.5595872E0,1.6513888E-3,1.3696689E-2,-6.026297E-3,3.9006115E-3,-6.063779E-3,-1.5280179E-2,3.300514E-3,-7.0439926E-3,-1.3435987E-2,-7.107286E-3,-1.6896619E-2,-7.1139256E-3,-1.2506448E-2,2.8709169E-3,-1.3059558E-2,3.909148E-4,-4.24035E-3,8.112989E-3,-9.3275225E-3,2.0742184E-3,1.743674E-2,-5.562079E-5,2.0546492E-3,-9.791489E-3,-1.0150685E-2,6.908601E-3,-4.147472E-3,1.2990262E-2,4.4850344E-3,-7.560839E-3,1.4066128E-2,5.2373884E-3,-9.048171E-3,5.319232E-3,4.0489866E-4,-1.6394533E-2],"split_indices":[181,143,406,184,227,725,1041,131,595,833,68,117,197,424,661,721,0,0,0,480,1333,1,84,296,801,87,1533,521,365,1021,183,0,448,0,0,0,305,308,0,709,134,558,198,301,485,276,229,0,1287,177,162,143,360,58,0,0,667,0,0,0,0,0,0,0,0,0,0,0,0,0,0,0,0,0,0,0,0,0,0,0,0,0,0,0,0,0,0,0,0,0,0,0,0],"split_type":[0,0,0,0,0,0,0,0,0,0,0,0,0,0,0,0,0,0,0,0,0,0,0,0,0,0,0,0,0,0,0,0,0,0,0,0,0,0,0,0,0,0,0,0,0,0,0,0,0,0,0,0,0,0,0,0,0,0,0,0,0,0,0,0,0,0,0,0,0,0,0,0,0,0,0,0,0,0,0,0,0,0,0,0,0,0,0,0,0,0,0,0,0],"sum_hessian":[4.0499297E3,1.1757235E3,2.874206E3,1.2824637E2,1.0474772E3,1.726979E3,1.1472272E3,9.0497284E1,3.774909E1,5.034939E2,5.439833E2,2.239967E2,1.5029823E3,9.969797E2,1.5024747E2,7.5747444E1,1.4749836E1,1.8499113E1,1.9249975E1,2.924866E1,4.7424524E2,1.7699123E2,3.6699203E2,8.7998375E1,1.3599834E2,2.3949475E2,1.2634875E3,4.1373837E2,5.8324133E2,5.849897E1,9.17485E1,1.2249965E1,6.3497482E1,1.5998711E1,1.32499485E1,1.3499151E1,4.607461E2,1.6699123E2,1E1,1.3849889E2,2.2849313E2,6.1248726E1,2.674965E1,6.7249214E1,6.874912E1,2.0224599E2,3.724877E1,2.4249714E1,1.2392378E3,9.224844E1,3.2148993E2,4.5574323E2,1.2749811E2,4.4249203E1,1.4249765E1,1.2499684E1,7.924881E1,1.0999992E1,5.249749E1,3.9574634E2,6.499975E1,2.349978E1,1.4349144E2,6.499982E1,7.349908E1,1.1874454E2,1.097486E2,4.8248997E1,1.2999726E1,1.3749781E1,1.2999868E1,4.3749474E1,2.3499739E1,4.024958E1,2.8499542E1,1.6199646E2,4.024953E1,1.924918E1,1.799959E1,1.2039883E3,3.524949E1,1.12497E1,8.099875E1,1.0999868E1,3.1049005E2,4.157436E2,3.9999634E1,7.549882E1,5.1999294E1,1.9999577E1,2.4249626E1,1.0749855E1,6.8498955E1],"tree_param":{"num_deleted":"0","num_feature":"4020","num_nodes":"93","size_leaf_vector":"0"}},{"base_weights":[-5.3650606E-6,-5.3355074E-1,2.183481E-1,2.235601E-1,-6.263696E-1,7.1462387E-1,6.437556E-2,6.5359515E-1,-7.976224E-1,-3.087741E-1,-9.192362E-1,4.3370587E-1,1.2865123E0,-4.0603587E-1,2.4132419E-1,9.134908E-1,-6.5426564E-1,-1.3587135E0,-2.180183E-1,1.0868986E0,-3.9694807E-1,-1.3109674E0,-7.2728E-1,-6.368591E-1,5.0423247E-1,-5.8657295E-1,1.4409329E0,-5.7399815E-1,1.023491E0,-3.4371108E-1,3.9569905E-1,-3.3337536E-1,1.155502E0,1.7903912E0,1.7161946E-1,1.5571711E0,-4.5744E-1,-1.3890173E0,-0E0,-2.178606E-1,-1.0337847E0,-1.8051738E0,1.3414562E-1,9.9429125E-1,3.609875E-1,1.5851542E0,6.536981E-1,-7.732779E-1,2.8022295E-1,1.5169697E0,3.331466E-1,-1.4682613E-1,-1.0936192E0,5.059365E-1,-1.3591123E-1,1.6362551E-1,1.3564177E0,-5.9663486E-1,3.8622412E-1,-6.005776E-1,-1.5131092E0,3.2680362E-1,-6.974761E-1,-1.3304555E0,-7.037122E-1,1.6699056E-1,1.2427562E0,-1.0677236E0,4.1745907E-1,7.043369E-1,1.6900159E0,-3.1209001E-2,1.4622241E0,-1.128482E0,-2.4115273E-1,1.8513052E-2,1.3758904E0,5.648927E-1,1.8639364E0,-7.834228E-1,1.0582601E0,-9.415493E-1,3.625156E-2,-3.7131345E-1,-1.4056549E0,9.716459E-2,6.524207E-1,-8.3330435E-1,2.4198169E-1],"categories":[],"categories_nodes":[],"categories_segments":[],"categories_sizes":[],"default_left":[1,1,1,1,1,1,1,1,1,1,1,1,1,1,1,1,0,0,0,1,1,1,1,1,1,0,1,1,1,1,1,0,1,0,0,0,1,1,0,1,1,0,0,1,1,1,1,1,1,1,1,1,1,1,1,0,0,0,0,0,0,0,0,0,0,0,0,0,0,0,0,0,0,0,0,0,0,0,0,0,0,0,0,0,0,0,0,0,0],"id":2,"left_children":[1,3,5,7,9,11,13,15,17,19,21,23,25,27,29,31,-1,-1,-1,33,35,37,39,41,43,-1,45,47,49,51,53,-1,55,-1,-1,-1,57,59,-1,61,63,-1,-1,65,67,69,71,73,75,77,79,81,83,85,87,-1,-1,-1,-1,-1,-1,-1,-1,-1,-1,-1,-1,-1,-1,-1,-1,-1,-1,-1,-1,-1,-1,-1,-1,-1,-1,-1,-1,-1,-1,-1,-1,-1,-1],"loss_changes":[4.7203723E2,8.282779E1,2.1965047E2,5.7274403E1,9.7231995E1,1.0879956E2,1.82842E2,3.1695522E1,1.2304516E1,6.251324E1,4.002292E1,3.490052E1,6.5553955E1,1.4476358E2,1.4427432E2,2.3541908E1,0E0,0E0,0E0,1.9167099E1,5.6888626E1,1.8209564E1,5.722917E1,2.613788E1,2.9843033E1,0E0,2.2462158E1,9.179535E1,2.1124886E1,4.911475E1,7.409735E1,0E0,1.262986E1,0E0,0E0,0E0,5.445362E1,1.5524841E1,0E0,3.666829E1,2.1534378E1,0E0,0E0,1.9678688E1,2.7433136E1,1.4901367E1,1.8733868E1,8.222772E1,2.9365185E1,1.1085251E1,2.3295498E1,3.8662537E1,1.5085091E1,6.259778E1,5.7586308E1,0E0,0E0,0E0,0E0,0E0,0E0,0E0,0E0,0E0,0E0,0E0,0E0,0E0,0E0,0E0,0E0,0E0,0E0,0E0,0E0,0E0,0E0,0E0,0E0,0E0,0E0,0E0,0E0,0E0,0E0,0E0,0E0,0E0,0E0],"parents":[2147483647,0,0,1,1,2,2,3,3,4,4,5,5,6,6,7,7,8,8,9,9,10,10,11,11,12,12,13,13,14,14,15,15,19,19,20,20,21,21,22,22,23,23,24,24,26,26,27,27,28,28,29,29,30,30,32,32,36,36,37,37,39,39,40,40,43,43,44,44,45,45,46,46,47,47,48,48,49,49,50,50,51,51,52,52,53,53,54,54],"right_children":[2,4,6,8,10,12,14,16,18,20,22,24,26,28,30,32,-1,-1,-1,34,36,38,40,42,44,-1,46,48,50,52,54,-1,56,-1,-1,-1,58,60,-1,62,64,-1,-1,66,68,70,72,74,76,78,80,82,84,86,88,-1,-1,-1,-1,-1,-1,-1,-1,-1,-1,-1,-1,-1,-1,-1,-1,-1,-1,-1,-1,-1,-1,-1,-1,-1,-1,-1,-1,-1,-1,-1,-1,-1,-1],"split_conditions":[4.2883563E0,-7.819411E-1,-3.3766454E-1,4.3570614E-1,8.341162E-1,1.8327742E0,-6.099783E-1,1.6526728E0,-1.1353591E-1,-1.4134679E0,4.4884312E-1,-2.2719364E0,-2.4317565E0,1.7646017E0,1.042305E0,-6.3985314E0,-6.542656E-3,-1.3587135E-2,-2.1801828E-3,-7.975957E0,-1.141222E0,4.7023473E0,1.3998178E-1,6.371745E-1,-4.903788E-1,-5.8657294E-3,-2.9581046E0,1.0081463E0,-5.1681507E-1,7.362287E-1,3.382398E0,-3.3337537E-3,3.8836484E-3,1.7903911E-2,1.7161946E-3,1.5571711E-2,2.9960306E0,-1.1837857E0,-0E0,4.152823E-3,2.7980977E-1,-1.8051738E-2,1.3414562E-3,3.5208874E0,-3.4183972E0,-1.3623025E0,-1.9207952E0,-5.066346E-2,2.3654017E0,8.8284034E-1,-2.8368917E0,-1.854527E-1,9.478285E-2,4.9187052E-1,2.2895617E0,1.6362551E-3,1.3564176E-2,-5.9663486E-3,3.862241E-3,-6.0057756E-3,-1.5131092E-2,3.268036E-3,-6.974761E-3,-1.3304555E-2,-7.0371223E-3,1.6699056E-3,1.2427562E-2,-1.0677236E-2,4.1745906E-3,7.0433686E-3,1.690016E-2,-3.1209E-4,1.4622241E-2,-1.128482E-2,-2.4115273E-3,1.8513051E-4,1.3758903E-2,5.648927E-3,1.8639363E-2,-7.834228E-3,1.0582601E-2,-9.415492E-3,3.625156E-4,-3.7131344E-3,-1.40565485E-2,9.7164593E-4,6.524207E-3,-8.333043E-3,2.4198168E-3],"split_indices":[181,143,243,184,227,506,177,131,595,833,68,68,122,67,242,721,0,0,0,480,1333,1,84,106,305,0,600,74,229,236,83,0,448,0,0,0,305,308,0,709,134,0,0,421,182,515,100,176,265,110,2,725,376,466,226,0,0,0,0,0,0,0,0,0,0,0,0,0,0,0,0,0,0,0,0,0,0,0,0,0,0,0,0,0,0,0,0,0,0],"split_type":[0,0,0,0,0,0,0,0,0,0,0,0,0,0,0,0,0,0,0,0,0,0,0,0,0,0,0,0,0,0,0,0,0,0,0,0,0,0,0,0,0,0,0,0,0,0,0,0,0,0,0,0,0,0,0,0,0,0,0,0,0,0,0,0,0,0,0,0,0,0,0,0,0,0,0,0,0,0,0,0,0,0,0,0,0,0,0,0,0],"sum_hessian":[4.0497705E3,1.1756451E3,2.8741252E3,1.2823563E2,1.0474094E3,6.79703E2,2.1944224E3,9.0489235E1,3.774639E1,5.0347586E2,5.439336E2,4.5698514E2,2.2271785E2,5.994669E2,1.5949554E3,7.573988E1,1.4749351E1,1.8496487E1,1.9249907E1,2.9244757E1,4.742311E2,1.7696529E2,3.6696835E2,2.7748232E1,4.2923688E2,1.6749674E1,2.0596819E2,5.3697363E2,6.2493263E1,3.3274048E2,1.2622148E3,1.224986E1,6.3490025E1,1.5994844E1,1.3249911E1,1.34966345E1,4.6073447E2,1.6696529E2,1E1,1.3849559E2,2.2847275E2,1.0498451E1,1.724978E1,9.57439E1,3.3349298E2,1.7322061E2,3.2747574E1,4.354768E2,1.0149683E2,3.574458E1,2.6748686E1,2.6449448E2,6.824602E1,1.0454694E3,2.167456E2,1.09999695E1,5.2490055E1,3.9573547E2,6.4999E1,2.3499126E1,1.4346616E2,6.499928E1,7.3496315E1,1.1872835E2,1.097444E2,2.2499754E1,7.324414E1,1.1999609E1,3.2149338E2,1.9249075E1,1.5397153E2,1.8249619E1,1.4497957E1,2.604803E2,1.749965E2,8.274851E1,1.8748322E1,1.0249108E1,2.5495468E1,1.0499921E1,1.6248766E1,4.87467E1,2.1574777E2,2.1248823E1,4.6997192E1,2.7624802E2,7.6922125E2,7.574841E1,1.4099718E2],"tree_param":{"num_deleted":"0","num_feature":"4020","num_nodes":"89","size_leaf_vector":"0"}},{"base_weights":[-4.660904E-6,-5.282926E-1,2.1618603E-1,2.2127414E-1,-6.201836E-1,7.075865E-1,6.3735455E-2,6.472116E-1,-7.901444E-1,-3.0563867E-1,-9.1026384E-1,4.16458E-1,1.249298E0,-4.019602E-1,2.3890263E-1,9.0465784E-1,-6.481712E-1,-1.3461229E0,-2.1594726E-1,1.07691E0,-3.9296943E-1,-6.75079E-1,-1.224657E0,4.6118617E-1,-1.3067396E0,1.3701411E0,-5.089872E-1,-5.6829447E-1,1.0138478E0,-3.4036556E-1,3.917555E-1,-3.3029762E-1,1.1444012E0,1.774672E0,1.6946279E-1,1.5431157E0,-4.528889E-1,-3.2472277E-1,-1.0060364E0,1.0112553E-1,-1.2911116E0,-7.6338726E-1,5.229954E-1,1.8367466E-1,1.4800394E0,-7.6563185E-1,2.7756548E-1,9.919077E-2,1.3735989E0,-1.4539431E-1,-1.0830431E0,5.009009E-1,-1.3458227E-1,1.6212611E-1,1.343415E0,-5.907101E-1,3.8242728E-1,2.5771955E-1,-1.1263162E0,3.350913E-1,-1.0994573E0,-1.3698137E0,-2.6611006E-1,8.2149786E-1,2.9944137E-1,1.5966126E0,6.843715E-1,-1.117371E0,-2.3875628E-1,1.8330157E-2,1.3630463E0,1.6658275E0,4.9255148E-1,-9.32402E-1,3.5890847E-2,-1.3028469E0,-1.0121897E-1,9.619662E-2,6.459338E-1,-8.2511884E-1,2.3958048E-1],"categories":[],"categories_nodes":[],"categories_segments":[],"categories_sizes":[],"default_left":[1,1,1,1,1,1,1,1,1,1,1,1,1,1,1,1,0,0,0,1,1,1,1,1,0,1,0,1,1,1,1,0,1,0,0,0,1,1,1,0,1,0,1,0,1,1,1,0,1,1,1,1,1,0,0,0,0,0,0,0,0,0,0,0,0,0,0,0,0,0,0,0,0,0,0,0,0,0,0,0,0],"id":3,"left_children":[1,3,5,7,9,11,13,15,17,19,21,23,25,27,29,31,-1,-1,-1,33,35,37,39,41,-1,43,-1,45,47,49,51,-1,53,-1,-1,-1,55,57,59,-1,61,-1,63,-1,65,67,69,-1,71,73,75,77,79,-1,-1,-1,-1,-1,-1,-1,-1,-1,-1,-1,-1,-1,-1,-1,-1,-1,-1,-1,-1,-1,-1,-1,-1,-1,-1,-1,-1],"loss_changes":[4.6272284E2,8.117383E1,2.1533043E2,5.617863E1,9.537198E1,1.06820526E2,1.7917896E2,3.109283E1,1.2077341E1,6.132955E1,3.945993E1,3.4840286E1,5.1144196E1,1.4197403E2,1.4143924E2,2.3094872E1,0E0,0E0,0E0,1.8845608E1,5.5827362E1,3.607306E1,2.0565002E1,3.3226738E1,0E0,2.8730286E1,0E0,9.00052E1,2.0752747E1,4.816683E1,7.2633545E1,0E0,1.2386726E1,0E0,0E0,0E0,5.3380577E1,7.21745E1,2.0533905E1,0E0,1.7458313E1,0E0,2.734507E1,0E0,1.777591E1,8.061653E1,2.8816227E1,0E0,1.0890289E1,3.7911694E1,1.48106E1,6.1358765E1,5.6456097E1,0E0,0E0,0E0,0E0,0E0,0E0,0E0,0E0,0E0,0E0,0E0,0E0,0E0,0E0,0E0,0E0,0E0,0E0,0E0,0E0,0E0,0E0,0E0,0E0,0E0,0E0,0E0,0E0],"parents":[2147483647,0,0,1,1,2,2,3,3,4,4,5,5,6,6,7,7,8,8,9,9,10,10,11,11,12,12,13,13,14,14,15,15,19,19,20,20,21,21,22,22,23,23,25,25,27,27,28,28,29,29,30,30,32,32,36,36,37,37,38,38,40,40,42,42,44,44,45,45,46,46,48,48,49,49,50,50,51,51,52,52],"right_children":[2,4,6,8,10,12,14,16,18,20,22,24,26,28,30,32,-1,-1,-1,34,36,38,40,42,-1,44,-1,46,48,50,52,-1,54,-1,-1,-1,56,58,60,-1,62,-1,64,-1,66,68,70,-1,72,74,76,78,80,-1,-1,-1,-1,-1,-1,-1,-1,-1,-1,-1,-1,-1,-1,-1,-1,-1,-1,-1,-1,-1,-1,-1,-1,-1,-1,-1,-1],"split_conditions":[4.2883563E0,-7.819411E-1,-3.3766454E-1,4.3570614E-1,8.341162E-1,1.6646512E0,-6.099783E-1,1.6526728E0,-1.1353591E-1,-1.4134679E0,7.583064E-3,2.4490457E0,1.2968138E0,1.7646017E0,1.042305E0,-6.3985314E0,-6.4817118E-3,-1.3461228E-2,-2.1594726E-3,-7.2678623E0,-1.141222E0,3.622678E-1,-1.6928492E0,-2.6979003E0,-1.3067395E-2,-5.9989605E0,-5.0898716E-3,1.0081463E0,-2.8368917E0,7.362287E-1,3.382398E0,-3.302976E-3,3.8836484E-3,1.774672E-2,1.6946278E-3,1.5431157E-2,2.9960306E0,-1.7245433E0,-3.4640285E-1,1.0112553E-3,2.6631956E0,-7.6338723E-3,-6.383526E-3,1.8367466E-3,-2.78517E0,-5.066346E-2,2.3654017E0,9.919077E-4,8.630246E-1,-1.854527E-1,-1.724251E0,4.9187052E-1,2.2895617E0,1.621261E-3,1.343415E-2,-5.907101E-3,3.8242727E-3,2.5771954E-3,-1.1263162E-2,3.3509128E-3,-1.0994572E-2,-1.3698136E-2,-2.6611006E-3,8.2149785E-3,2.9944137E-3,1.5966125E-2,6.8437145E-3,-1.1173709E-2,-2.3875628E-3,1.8330157E-4,1.3630463E-2,1.6658274E-2,4.9255146E-3,-9.32402E-3,3.5890847E-4,-1.3028469E-2,-1.0121897E-3,9.619662E-4,6.459338E-3,-8.251188E-3,2.3958047E-3],"split_indices":[181,143,243,184,227,526,177,131,595,833,727,151,157,67,242,721,0,0,0,440,1333,44,708,128,0,460,0,74,2,236,83,0,448,0,0,0,305,120,107,0,325,0,404,0,600,176,265,0,307,725,200,466,226,0,0,0,0,0,0,0,0,0,0,0,0,0,0,0,0,0,0,0,0,0,0,0,0,0,0,0,0],"split_type":[0,0,0,0,0,0,0,0,0,0,0,0,0,0,0,0,0,0,0,0,0,0,0,0,0,0,0,0,0,0,0,0,0,0,0,0,0,0,0,0,0,0,0,0,0,0,0,0,0,0,0,0,0,0,0,0,0,0,0,0,0,0,0,0,0,0,0,0,0,0,0,0,0,0,0,0,0,0,0,0,0],"sum_hessian":[4.0494756E3,1.1755164E3,2.8739592E3,1.2821797E2,1.0472985E3,6.796317E2,2.1943274E3,9.047601E1,3.7741962E1,5.0344626E2,5.438522E2,4.4320932E2,2.364224E2,5.994221E2,1.5949053E3,7.572746E1,1.4748554E1,1.8492172E1,1.9249788E1,2.9238295E1,4.7420795E2,3.1291806E2,2.3093408E2,4.3271005E2,1.04992695E1,2.2142506E2,1.4997331E1,5.3693915E2,6.2482956E1,3.3272958E2,1.2621758E3,1.2249688E1,6.3477776E1,1.598856E1,1.3249736E1,1.3492499E1,4.6071545E2,1.529666E2,1.5995146E2,1.0998094E1,2.1993599E2,2.0245842E1,4.124642E2,1.8997572E1,2.0242749E2,4.3544547E2,1.0149369E2,1.7998358E1,4.4484596E1,2.6449014E2,6.823944E1,1.0454347E3,2.1674103E2,1.0999932E1,5.247784E1,3.9571768E2,6.499778E1,8.898679E1,6.397981E1,1.0247911E1,1.4970355E2,2.0394055E2,1.5995438E1,1.7547926E2,2.3698492E2,1.7568176E2,2.6745731E1,2.6044986E2,1.7499559E2,8.274852E1,1.8745174E1,3.2735912E1,1.1748683E1,4.8742508E1,2.1574765E2,5.548981E1,1.2749628E1,2.7624768E2,7.69187E2,7.574483E1,1.409962E2],"tree_param":{"num_deleted":"0","num_feature":"4020","num_nodes":"81","size_leaf_vector":"0"}},{"base_weights":[-4.0616083E-6,-5.230889E-1,2.1404533E-1,2.1902308E-1,-6.140604E-1,-7.5207734E-3,5.4733396E-1,6.40926E-1,-7.8277063E-1,-3.025417E-1,-9.013764E-1,-6.9525874E-1,9.5362745E-2,7.1999294E-1,-5.954863E-1,8.959658E-1,-6.421461E-1,-3.3290115E-1,-1.4922519E0,-1.3961626E0,-1.9174333E-1,-1.288165E0,-7.1190375E-1,4.569911E-1,-8.3190715E-1,-4.4001397E-1,1.9709338E-1,1.0474962E0,4.863202E-1,2.9339823E-1,-1.1592921E0,-3.2724988E-1,1.1334893E0,3.9434594E-1,-1.2569691E0,-1.7372038E0,-5.083813E-1,6.458515E-2,-7.128553E-1,-1.371202E0,-1.0503416E-1,-2.5191933E-1,-1.042762E0,1.1932456E0,-4.0941218E-1,2.70938E-1,-9.825551E-1,-6.8930054E-1,8.964111E-1,1.73779E0,1.6557267E-1,5.744292E-1,1.2543267E0,3.313426E-1,1.0334463E0,-1.2530789E-1,1.5166624E0,-4.6927226E-1,-1.7089273E0,1.6064064E-1,1.3306532E0,2.908286E-1,-4.885542E-1,-2.7422084E-2,-1.081373E0,-5.7097334E-1,-1.4973907E0,2.7164742E-1,-7.353009E-1,-1.4312382E0,-7.515095E-1,-6.0924095E-1,9.5032424E-1,-1.4446598E0,-6.5166396E-1,-9.122774E-1,2.0834036E-1,1.707444E0,-1.4683969E-2,1.9958049E-1,-9.695211E-1,-5.7704014E-1,8.221524E-1,-2.2806567E-1,1.3126879E0,4.3681425E-1,-7.4874413E-1,1.3827566E0,5.0982124E-1,-8.9655477E-1,5.210674E-1,-1.0036303E0,9.322872E-1,-1.85739E0,-1.0159842E0],"categories":[],"categories_nodes":[],"categories_segments":[],"categories_sizes":[],"default_left":[1,1,1,1,1,1,1,1,1,1,1,1,1,1,1,1,0,1,0,1,1,1,1,1,1,1,1,1,1,1,1,0,1,0,0,0,0,1,1,1,0,1,1,0,0,1,1,1,1,0,1,1,1,1,1,1,0,1,1,0,0,0,0,0,0,0,0,0,0,0,0,0,0,0,0,0,0,0,0,0,0,0,0,0,0,0,0,0,0,0,0,0,0,0,0],"id":4,"left_children":[1,3,5,7,9,11,13,15,17,19,21,23,25,27,29,31,-1,33,-1,35,37,39,41,43,45,47,49,51,53,55,57,-1,59,-1,-1,-1,-1,61,63,65,-1,67,69,-1,-1,71,73,75,77,-1,79,81,83,85,87,89,-1,91,93,-1,-1,-1,-1,-1,-1,-1,-1,-1,-1,-1,-1,-1,-1,-1,-1,-1,-1,-1,-1,-1,-1,-1,-1,-1,-1,-1,-1,-1,-1,-1,-1,-1,-1,-1,-1],"loss_changes":[4.5358395E2,7.9551605E1,2.1228992E2,5.5106636E1,9.354248E1,1.22318085E2,2.2694199E2,3.0503479E1,1.1866701E1,6.0851807E1,3.900598E1,3.580011E1,8.199088E1,7.584613E1,7.612478E1,2.2658535E1,0E0,1.7291016E1,0E0,1.3117722E1,6.137908E1,1.7331482E1,5.572464E1,1.6113796E1,3.3737106E1,8.071864E1,6.1115597E1,3.984497E1,4.9188934E1,3.0659023E1,3.4367172E1,0E0,1.215052E1,0E0,0E0,0E0,0E0,3.877282E1,3.82315E1,1.5920898E1,0E0,3.948445E1,2.3098206E1,0E0,0E0,1.5526037E1,2.6193985E1,4.0861153E1,2.8276218E1,0E0,4.8065464E1,3.6976387E1,2.5182922E1,5.235139E1,2.279306E1,2.302098E1,0E0,3.2760483E1,3.3840485E0,0E0,0E0,0E0,0E0,0E0,0E0,0E0,0E0,0E0,0E0,0E0,0E0,0E0,0E0,0E0,0E0,0E0,0E0,0E0,0E0,0E0,0E0,0E0,0E0,0E0,0E0,0E0,0E0,0E0,0E0,0E0,0E0,0E0,0E0,0E0,0E0],"parents":[2147483647,0,0,1,1,2,2,3,3,4,4,5,5,6,6,7,7,8,8,9,9,10,10,11,11,12,12,13,13,14,14,15,15,17,17,19,19,20,20,21,21,22,22,23,23,24,24,25,25,26,26,27,27,28,28,29,29,30,30,32,32,37,37,38,38,39,39,41,41,42,42,45,45,46,46,47,47,48,48,50,50,51,51,52,52,53,53,54,54,55,55,57,57,58,58],"right_children":[2,4,6,8,10,12,14,16,18,20,22,24,26,28,30,32,-1,34,-1,36,38,40,42,44,46,48,50,52,54,56,58,-1,60,-1,-1,-1,-1,62,64,66,-1,68,70,-1,-1,72,74,76,78,-1,80,82,84,86,88,90,-1,92,94,-1,-1,-1,-1,-1,-1,-1,-1,-1,-1,-1,-1,-1,-1,-1,-1,-1,-1,-1,-1,-1,-1,-1,-1,-1,-1,-1,-1,-1,-1,-1,-1,-1,-1,-1,-1],"split_conditions":[4.2883563E0,-7.819411E-1,1.6817267E0,4.3570614E-1,8.341162E-1,-7.7284867E-1,4.2394876E0,1.6526728E0,1.9714634E0,-6.795404E-3,4.4884312E-1,-4.5431147E0,-9.133863E-1,4.3149704E-1,5.098048E0,-6.3985314E0,-6.421461E-3,1.307396E0,-1.4922518E-2,-1.295823E-1,4.1602154E0,4.5220947E0,3.46468E-1,3.85356E-3,-5.6371087E-1,1.2682159E0,-1.2100459E0,3.8969173E0,2.5449915E0,5.4948378E0,-2.8071606E-1,-3.2724987E-3,3.8836484E-3,3.943459E-3,-1.2569691E-2,-1.7372038E-2,-5.083813E-3,3.9336908E-1,-7.750335E-2,-1.1837857E0,-1.0503415E-3,4.152823E-3,8.9706324E-2,1.1932456E-2,-4.0941215E-3,2.5557005E0,-1.5212981E-1,2.242566E-1,-8.3393836E-1,1.73779E-2,1.2818067E-2,-6.6862404E-1,-5.8448637E-1,3.8431468E0,-2.7950559E0,-7.377444E-2,1.51666235E-2,-1.7032218E-1,1.5823965E0,1.6064064E-3,1.3306532E-2,2.9082857E-3,-4.885542E-3,-2.7422083E-4,-1.081373E-2,-5.7097333E-3,-1.4973907E-2,2.7164742E-3,-7.3530087E-3,-1.4312382E-2,-7.5150947E-3,-6.092409E-3,9.503243E-3,-1.4446598E-2,-6.5166396E-3,-9.122774E-3,2.0834035E-3,1.707444E-2,-1.468397E-4,1.995805E-3,-9.6952105E-3,-5.770401E-3,8.221524E-3,-2.2806567E-3,1.3126878E-2,4.368142E-3,-7.487441E-3,1.3827566E-2,5.098212E-3,-8.965547E-3,5.210674E-3,-1.0036303E-2,9.322872E-3,-1.85739E-2,-1.0159842E-2],"split_indices":[181,143,406,184,227,725,1041,131,503,225,68,1220,197,424,661,721,0,51,0,157,223,1,84,1047,263,87,1533,541,365,1021,1067,0,448,0,0,0,0,251,89,308,0,709,134,0,0,721,176,276,229,0,1287,117,86,143,360,58,0,249,525,0,0,0,0,0,0,0,0,0,0,0,0,0,0,0,0,0,0,0,0,0,0,0,0,0,0,0,0,0,0,0,0,0,0,0,0],"split_type":[0,0,0,0,0,0,0,0,0,0,0,0,0,0,0,0,0,0,0,0,0,0,0,0,0,0,0,0,0,0,0,0,0,0,0,0,0,0,0,0,0,0,0,0,0,0,0,0,0,0,0,0,0,0,0,0,0,0,0,0,0,0,0,0,0,0,0,0,0,0,0,0,0,0,0,0,0,0,0,0,0,0,0,0,0,0,0,0,0,0,0,0,0,0,0],"sum_hessian":[4.0490874E3,1.1753568E3,2.8737305E3,1.2819362E2,1.0471632E3,1.7267717E3,1.1469589E3,9.045778E1,3.7735844E1,5.0340536E2,5.437578E2,2.2395543E2,1.5028163E3,9.9673987E2,1.5021898E2,7.571033E1,1.4747451E1,2.3992098E1,1.3743747E1,4.5242653E1,4.5816272E2,1.7687907E2,3.6687872E2,2.3495115E1,2.0046033E2,2.3943243E2,1.2633838E3,4.1359058E2,5.831493E2,5.8487854E1,9.1731125E1,1.224945E1,6.346088E1,1.3746651E1,1.0245447E1,3.1994987E1,1.3247664E1,3.0768994E2,1.504728E2,1.6513057E2,1.1748506E1,1.542249E2,2.1265382E2,1.2497617E1,1.09974985E1,2.3995861E1,1.7646446E2,2.0219983E2,3.72326E1,2.4243773E1,1.23914E3,1.26966805E2,2.8662378E2,4.5568008E2,1.2746922E2,4.4242004E1,1.4245852E1,4.149345E1,5.023768E1,1.0999882E1,5.2461E1,2.187086E2,8.898133E1,5.2989017E1,9.7483765E1,2.3245214E1,1.4188535E2,7.424532E1,7.997957E1,8.944154E1,1.2321229E2,1.0498184E1,1.3497677E1,7.222832E1,1.04236145E2,1.619537E2,4.024612E1,1.9235556E1,1.7997044E1,1.2038951E3,3.524496E1,2.224376E1,1.04723045E2,1.0746694E1,2.7587708E2,4.156837E2,3.9996387E1,7.547746E1,5.1991756E1,1.9995989E1,2.4246014E1,3.0245848E1,1.12476015E1,3.9989506E1,1.0248172E1],"tree_param":{"num_deleted":"0","num_feature":"4020","num_nodes":"95","size_leaf_vector":"0"}},{"base_weights":[-2.4135714E-5,-5.180269E-1,2.1192871E-1,2.1674149E-1,-6.080907E-1,6.9607615E-1,6.1746154E-2,6.3473564E-1,-7.756845E-1,-2.99599E-1,-8.92674E-1,4.2163923E-1,1.2551055E0,-3.9694884E-1,2.3426259E-1,8.874109E-1,-6.361892E-1,-1.3248283E0,-2.0906483E-1,1.0696708E0,-3.8608506E-1,-6.603656E-1,-1.2032933E0,-6.2764144E-1,4.907649E-1,-5.8697945E-1,1.4071274E0,-5.60834E-1,9.9836475E-1,-3.3827683E-1,3.853414E-1,-3.2423177E-1,1.1227608E0,1.7610965E0,1.7064497E-1,1.5294958E0,-4.453583E-1,-3.153956E-1,-9.863325E-1,1.06282115E-1,-1.268991E0,-1.779705E0,1.3227944E-1,9.7415245E-1,3.495162E-1,1.5487163E0,6.34886E-1,-7.5580716E-1,2.7481127E-1,1.4832703E0,3.206414E-1,-1.4552236E-1,-1.0725963E0,4.932384E-1,-1.3494849E-1,1.591689E-1,1.3181244E0,-5.815239E-1,3.7981614E-1,2.59274E-1,-1.1066774E0,-1.3637618E0,-6.3935363E-1,-2.8474578E-1,-1.3496183E0,1.5803207E-1,1.2194275E0,-1.0623306E0,4.0534624E-1,6.825103E-1,1.6519674E0,-4.269837E-2,1.4358724E0,-1.1030039E0,-2.3586166E-1,1.8823933E-2,1.346997E0,5.469575E-1,1.825032E0,-7.775174E-1,1.0344597E0,-9.199521E-1,3.2840032E-2,-3.5781813E-1,-1.3816345E0,9.4731815E-2,6.3606703E-1,-8.181699E-1,2.3525354E-1],"categories":[],"categories_nodes":[],"categories_segments":[],"categories_sizes":[],"default_left":[1,1,1,1,1,1,1,1,1,1,1,1,1,1,1,1,0,0,0,1,1,1,1,1,1,0,1,1,1,1,1,0,1,0,0,0,1,1,1,0,1,0,0,1,1,1,1,1,1,1,1,1,1,1,1,0,0,0,0,0,0,0,0,0,0,0,0,0,0,0,0,0,0,0,0,0,0,0,0,0,0,0,0,0,0,0,0,0,0],"id":5,"left_children":[1,3,5,7,9,11,13,15,17,19,21,23,25,27,29,31,-1,-1,-1,33,35,37,39,41,43,-1,45,47,49,51,53,-1,55,-1,-1,-1,57,59,61,-1,63,-1,-1,65,67,69,71,73,75,77,79,81,83,85,87,-1,-1,-1,-1,-1,-1,-1,-1,-1,-1,-1,-1,-1,-1,-1,-1,-1,-1,-1,-1,-1,-1,-1,-1,-1,-1,-1,-1,-1,-1,-1,-1,-1,-1],"loss_changes":[4.4473297E2,7.7966125E1,2.0896399E2,5.407319E1,9.173886E1,1.0386661E2,1.7379211E2,2.9927101E1,1.17738495E1,6.0143665E1,3.8505066E1,3.352146E1,6.3428833E1,1.378309E2,1.3816003E2,2.2232552E1,0E0,0E0,0E0,1.8491108E1,5.4631523E1,3.4975952E1,2.0079529E1,2.5397652E1,2.9030731E1,0E0,2.1628815E1,8.7837524E1,2.0378132E1,4.7076378E1,7.097127E1,0E0,1.1920975E1,0E0,0E0,0E0,5.209404E1,7.028229E1,2.0196457E1,0E0,1.7139374E1,0E0,0E0,1.9167107E1,2.6793655E1,1.4440491E1,1.8371552E1,7.8512924E1,2.8102684E1,1.0750214E1,2.2550798E1,3.669963E1,1.4796814E1,5.9494507E1,5.5261837E1,0E0,0E0,0E0,0E0,0E0,0E0,0E0,0E0,0E0,0E0,0E0,0E0,0E0,0E0,0E0,0E0,0E0,0E0,0E0,0E0,0E0,0E0,0E0,0E0,0E0,0E0,0E0,0E0,0E0,0E0,0E0,0E0,0E0,0E0],"parents":[2147483647,0,0,1,1,2,2,3,3,4,4,5,5,6,6,7,7,8,8,9,9,10,10,11,11,12,12,13,13,14,14,15,15,19,19,20,20,21,21,22,22,23,23,24,24,26,26,27,27,28,28,29,29,30,30,32,32,36,36,37,37,38,38,40,40,43,43,44,44,45,45,46,46,47,47,48,48,49,49,50,50,51,51,52,52,53,53,54,54],"right_children":[2,4,6,8,10,12,14,16,18,20,22,24,26,28,30,32,-1,-1,-1,34,36,38,40,42,44,-1,46,48,50,52,54,-1,56,-1,-1,-1,58,60,62,-1,64,-1,-1,66,68,70,72,74,76,78,80,82,84,86,88,-1,-1,-1,-1,-1,-1,-1,-1,-1,-1,-1,-1,-1,-1,-1,-1,-1,-1,-1,-1,-1,-1,-1,-1,-1,-1,-1,-1,-1,-1,-1,-1,-1,-1],"split_conditions":[4.2883563E0,-7.819411E-1,-3.3766454E-1,4.3570614E-1,8.341162E-1,1.8327742E0,-6.099783E-1,1.6526728E0,-1.1353591E-1,-1.4134679E0,7.583064E-3,-2.2719364E0,-2.4317565E0,1.7646017E0,1.042305E0,-6.3985314E0,-6.361892E-3,-1.32482825E-2,-2.0906483E-3,-7.2678623E0,-1.141222E0,3.622678E-1,-1.6928492E0,6.371745E-1,-4.903788E-1,-5.869794E-3,-2.9581046E0,1.0081463E0,-5.1681507E-1,7.362287E-1,3.382398E0,-3.2423176E-3,3.8836484E-3,1.7610965E-2,1.7064497E-3,1.5294958E-2,2.9960306E0,-1.7245433E0,4.5608997E-2,1.0628211E-3,-1.023207E0,-1.7797051E-2,1.3227944E-3,3.5208874E0,-3.4183972E0,-1.3623025E0,-1.9207952E0,-5.066346E-2,2.3654017E0,7.312274E-1,-2.8368917E0,-1.854527E-1,9.478285E-2,4.9187052E-1,2.2895617E0,1.591689E-3,1.3181244E-2,-5.8152387E-3,3.7981614E-3,2.59274E-3,-1.1066774E-2,-1.3637617E-2,-6.393536E-3,-2.8474578E-3,-1.3496183E-2,1.5803208E-3,1.2194274E-2,-1.0623306E-2,4.0534623E-3,6.825103E-3,1.6519673E-2,-4.2698366E-4,1.43587245E-2,-1.1030038E-2,-2.3586166E-3,1.8823933E-4,1.346997E-2,5.4695746E-3,1.825032E-2,-7.7751735E-3,1.0344597E-2,-9.199521E-3,3.2840032E-4,-3.5781811E-3,-1.3816345E-2,9.4731816E-4,6.36067E-3,-8.181699E-3,2.3525353E-3],"split_indices":[181,143,243,184,227,506,177,131,595,833,727,68,122,67,242,721,0,0,0,440,1333,44,708,106,305,0,600,74,229,236,83,0,448,0,0,0,305,120,134,0,850,0,0,421,182,515,100,176,265,30,2,725,376,466,226,0,0,0,0,0,0,0,0,0,0,0,0,0,0,0,0,0,0,0,0,0,0,0,0,0,0,0,0,0,0,0,0,0,0],"split_type":[0,0,0,0,0,0,0,0,0,0,0,0,0,0,0,0,0,0,0,0,0,0,0,0,0,0,0,0,0,0,0,0,0,0,0,0,0,0,0,0,0,0,0,0,0,0,0,0,0,0,0,0,0,0,0,0,0,0,0,0,0,0,0,0,0,0,0,0,0,0,0,0,0,0,0,0,0,0,0,0,0,0,0,0,0,0,0,0,0],"sum_hessian":[4.0486804E3,1.1751718E3,2.8735085E3,1.2816391E2,1.0470079E3,6.794649E2,2.1940437E3,9.043467E1,3.7729237E1,5.033852E2,5.436227E2,4.569129E2,2.2255202E2,5.9929865E2,1.5947451E3,7.5688614E1,1.4746053E1,1.8480545E1,1.924869E1,2.9230604E1,4.741546E2,3.1280536E2,2.3081734E2,2.7741167E1,4.2917172E2,1.6748257E1,2.0580376E2,5.368424E2,6.2456215E1,3.3269614E2,1.262049E3,1.2249148E1,6.343947E1,1.5980995E1,1.3249608E1,1.3486802E1,4.606678E2,1.5292876E2,1.598766E2,1.0996776E1,2.1982057E2,1.0492401E1,1.7248766E1,9.5714966E1,3.3345676E2,1.7306683E2,3.273693E1,4.3535962E2,1.01482796E2,3.571431E1,2.6741905E1,2.64472E2,6.8224144E1,1.0453232E3,2.1672572E2,1.0999816E1,5.243965E1,3.956716E2,6.499619E1,8.897956E1,6.39492E1,7.517449E1,8.470211E1,1.698693E1,2.0283363E2,2.2498497E1,7.321647E1,1.1998829E1,3.2145792E2,1.9242851E1,1.5382397E2,1.8247435E1,1.4489495E1,2.603728E2,1.7498685E2,8.2744804E1,1.8737995E1,1.0245495E1,2.5468817E1,1.0499671E1,1.6242233E1,4.8730743E1,2.1574126E2,2.1244751E1,4.6979393E1,2.762422E2,7.6908105E2,7.5738144E1,1.4098758E2],"tree_param":{"num_deleted":"0","num_feature":"4020","num_nodes":"89","size_leaf_vector":"0"}},{"base_weights":[-2.326097E-5,-5.1297057E-1,2.0984387E-1,2.1455736E-1,-6.021386E-1,-8.211147E-3,5.379048E-1,6.510507E-1,-7.2388184E-1,-2.965707E-1,-8.840714E-1,-6.870209E-1,9.3327716E-2,7.084121E-1,-5.9060484E-1,8.952058E-1,-5.836494E-1,3.7669402E-1,-1.1208531E0,-1.378215E0,-1.8701161E-1,-1.2659998E0,-6.9706327E-1,7.077507E-1,-7.971957E-1,-4.950014E-1,1.8404765E-1,1.031515E0,4.7794577E-1,2.8889784E-1,-1.1484643E0,1.1240661E0,-1.738604E-1,-4.0846968E-1,-1.6196895E0,-1.716012E0,-4.9936837E-1,1.140917E-1,-6.2207323E-1,-1.3480968E0,-9.760552E-2,-2.0134573E-1,-9.95545E-1,-1.2075697E0,-4.1520116E-1,-8.7697655E-1,5.238985E-1,1.6309427E0,1.4957817E-1,5.650837E-1,1.2355057E0,3.2444483E-1,1.0212872E0,-1.2545276E-1,1.499798E0,3.55451E-1,-1.3871666E0,4.3510026E-1,1.4221168E0,-1.8700446E0,-1.2518953E0,3.6482355E-1,-4.4978145E-1,6.2448736E-2,-1.0127385E0,-5.556804E-1,-1.4731944E0,3.2848597E-1,-6.6824526E-1,-1.2853924E0,-6.7341536E-1,-1.5454954E0,-7.312696E-1,-8.9265037E-1,1.1285127E-1,-1.3423417E0,-3.5814026E-1,-7.4559486E-1,8.2796776E-1,1.0790505E0,1.8597794E0,3.8223076E-1,-2.102332E-2,-5.697145E-1,8.092496E-1,-6.6853195E-2,1.3011302E0,4.2866945E-1,-7.433615E-1,2.4749188E-1,1.201644E0,-8.8804173E-1,5.1370794E-1,4.1044146E-2,-1.6087369E0],"categories":[],"categories_nodes":[],"categories_segments":[],"categories_sizes":[],"default_left":[1,1,1,1,1,1,1,1,1,1,1,1,1,1,1,1,0,0,1,1,1,1,1,0,1,1,1,1,1,1,1,1,0,0,0,1,0,1,1,1,0,1,1,1,1,1,1,1,1,1,1,1,1,1,0,0,1,0,0,0,0,0,0,0,0,0,0,0,0,0,0,0,0,0,0,0,0,0,0,0,0,0,0,0,0,0,0,0,0,0,0,0,0,0,0],"id":6,"left_children":[1,3,5,7,9,11,13,15,17,19,21,23,25,27,29,31,-1,-1,33,35,37,39,41,-1,43,45,47,49,51,53,55,57,-1,-1,-1,59,-1,61,63,65,-1,67,69,71,73,75,77,79,81,83,85,87,89,91,-1,-1,93,-1,-1,-1,-1,-1,-1,-1,-1,-1,-1,-1,-1,-1,-1,-1,-1,-1,-1,-1,-1,-1,-1,-1,-1,-1,-1,-1,-1,-1,-1,-1,-1,-1,-1,-1,-1,-1,-1],"loss_changes":[4.3599487E2,7.641443E1,2.0560806E2,5.3364635E1,9.000574E1,1.1913562E2,2.2124188E2,2.7249836E1,1.8538973E1,5.9507393E1,3.8005768E1,3.512532E1,8.034466E1,7.378055E1,7.4506645E1,1.8402882E1,0E0,0E0,1.0257404E1,1.2866859E1,6.021268E1,1.6917755E1,5.42101E1,0E0,3.224774E1,7.87474E1,6.4765305E1,3.8730774E1,4.8379547E1,3.0028494E1,3.3773438E1,1.1995567E1,0E0,0E0,0E0,1.6799927E-2,0E0,3.8643337E1,5.0320663E1,1.5636322E1,0E0,3.4718147E1,2.0541397E1,1.4995941E1,2.7763418E1,3.4934753E1,2.2031227E1,1.8109589E0,5.0584045E1,3.5908432E1,2.465561E1,5.116255E1,1.7592285E1,2.2504108E1,0E0,0E0,2.5448792E1,0E0,0E0,0E0,0E0,0E0,0E0,0E0,0E0,0E0,0E0,0E0,0E0,0E0,0E0,0E0,0E0,0E0,0E0,0E0,0E0,0E0,0E0,0E0,0E0,0E0,0E0,0E0,0E0,0E0,0E0,0E0,0E0,0E0,0E0,0E0,0E0,0E0,0E0],"parents":[2147483647,0,0,1,1,2,2,3,3,4,4,5,5,6,6,7,7,8,8,9,9,10,10,11,11,12,12,13,13,14,14,15,15,18,18,19,19,20,20,21,21,22,22,24,24,25,25,26,26,27,27,28,28,29,29,30,30,31,31,35,35,37,37,38,38,39,39,41,41,42,42,43,43,44,44,45,45,46,46,47,47,48,48,49,49,50,50,51,51,52,52,53,53,56,56],"right_children":[2,4,6,8,10,12,14,16,18,20,22,24,26,28,30,32,-1,-1,34,36,38,40,42,-1,44,46,48,50,52,54,56,58,-1,-1,-1,60,-1,62,64,66,-1,68,70,72,74,76,78,80,82,84,86,88,90,92,-1,-1,94,-1,-1,-1,-1,-1,-1,-1,-1,-1,-1,-1,-1,-1,-1,-1,-1,-1,-1,-1,-1,-1,-1,-1,-1,-1,-1,-1,-1,-1,-1,-1,-1,-1,-1,-1,-1,-1,-1],"split_conditions":[4.2883563E0,-7.819411E-1,1.6817267E0,3.559022E-1,8.341162E-1,-7.7284867E-1,4.2394876E0,1.6526728E0,-6.667575E-2,-6.795404E-3,4.4884312E-1,-1.4706814E1,-5.8491683E-1,4.3149704E-1,5.098048E0,-1.0956848E0,-5.836494E-3,3.7669402E-3,3.2643563E-1,-1.295823E-1,3.8321683E0,4.5220947E0,1.3998178E-1,7.0775067E-3,-4.2145818E-1,1.0058001E0,-1.0200853E0,3.8969173E0,2.4566543E0,5.4948378E0,-1.0831856E0,1.3619046E0,-1.7386039E-3,-4.0846965E-3,-1.6196894E-2,-2.470458E-1,-4.9936837E-3,3.9336908E-1,-5.2386504E-2,-1.1837857E0,-9.7605516E-4,4.152823E-3,2.7980977E-1,6.365815E-1,1.904879E-2,4.369462E-1,-1.6574438E0,1.6686544E0,6.156119E-1,-6.6862404E-1,-9.0582144E-1,3.83656E0,2.0381222E-3,-7.377444E-2,1.4997981E-2,3.5545097E-3,-1.5595872E0,4.3510026E-3,1.4221167E-2,-1.8700445E-2,-1.2518953E-2,3.6482355E-3,-4.4978145E-3,6.2448735E-4,-1.0127384E-2,-5.5568037E-3,-1.4731944E-2,3.2848595E-3,-6.6824523E-3,-1.2853924E-2,-6.7341533E-3,-1.5454954E-2,-7.312696E-3,-8.926503E-3,1.1285127E-3,-1.3423417E-2,-3.5814026E-3,-7.4559483E-3,8.2796775E-3,1.0790505E-2,1.8597793E-2,3.8223076E-3,-2.102332E-4,-5.6971447E-3,8.092496E-3,-6.685319E-4,1.3011302E-2,4.2866943E-3,-7.4336147E-3,2.4749187E-3,1.2016439E-2,-8.880417E-3,5.1370794E-3,4.1044145E-4,-1.6087368E-2],"split_indices":[181,143,406,124,227,725,1041,131,284,225,68,820,196,424,661,180,0,0,509,157,223,1,84,0,117,45,1533,541,425,1021,183,461,0,0,0,236,0,251,89,308,0,709,134,234,801,254,68,1285,43,117,158,143,314,58,0,0,667,0,0,0,0,0,0,0,0,0,0,0,0,0,0,0,0,0,0,0,0,0,0,0,0,0,0,0,0,0,0,0,0,0,0,0,0,0,0],"split_type":[0,0,0,0,0,0,0,0,0,0,0,0,0,0,0,0,0,0,0,0,0,0,0,0,0,0,0,0,0,0,0,0,0,0,0,0,0,0,0,0,0,0,0,0,0,0,0,0,0,0,0,0,0,0,0,0,0,0,0,0,0,0,0,0,0,0,0,0,0,0,0,0,0,0,0,0,0,0,0,0,0,0,0,0,0,0,0,0,0,0,0,0,0,0,0],"sum_hessian":[4.0480854E3,1.1749309E3,2.8731545E3,1.2812709E2,1.0468038E3,1.7265374E3,1.1466172E3,8.76602E1,4.046688E1,5.0333023E2,5.434736E2,2.2390656E2,1.5026309E3,9.964371E2,1.5018013E2,7.3417305E1,1.4242902E1,1.07405405E1,2.972634E1,4.5227997E1,4.5810223E2,1.76742E2,3.667316E2,1.599478E1,2.0791177E2,2.0015385E2,1.302477E3,4.1339752E2,5.8303955E2,5.8474037E1,9.170609E1,6.042943E1,1.2987875E1,1.2991768E1,1.6734571E1,3.19825E1,1.3245495E1,2.7116705E2,1.8693518E2,1.6499486E2,1.1747137E1,1.3845708E2,2.2827452E2,9.9190704E1,1.0872108E2,1.4567941E2,5.4474426E1,2.9229294E1,1.2732477E3,1.2693245E2,2.864651E2,4.5585248E2,1.2718707E2,4.42342E1,1.4239835E1,1.2494826E1,7.9211266E1,1.899075E1,4.143868E1,2.1738575E1,1.0243926E1,1.8794737E2,8.321968E1,6.8227455E1,1.18707726E2,2.3238035E1,1.4175682E2,6.4996414E1,7.346066E1,1.1858409E2,1.0969043E2,5.6710735E1,4.2479965E1,5.6733704E1,5.1987377E1,7.596033E1,6.971909E1,1.0245842E1,4.4228584E1,1.0242509E1,1.8986784E1,5.3813794E2,7.3510974E2,2.223918E1,1.04693275E2,1.3741309E1,2.727238E2,4.1586044E2,3.999205E1,2.4489698E1,1.0269737E2,1.9992071E1,2.4242128E1,1.0747721E1,6.846355E1],"tree_param":{"num_deleted":"0","num_feature":"4020","num_nodes":"95","size_leaf_vector":"0"}},{"base_weights":[-4.2410327E-5,-5.0803417E-1,2.0777328E-1,-9.118924E-1,-3.4879977E-1,6.8461335E-1,5.988869E-2,-6.22504E-1,-1.332811E0,-3.5068146E-3,-5.484095E-1,4.015825E-1,1.2117631E0,-3.923938E-1,2.2997287E-1,4.929094E-1,-7.518088E-1,-1.4470539E0,-4.6704758E-2,-7.867275E-1,2.4567607E-1,-7.361068E-1,1.6600604E-1,4.4577453E-1,-1.2997881E0,1.3306016E0,-5.1480263E-1,-5.542163E-1,9.857608E-1,-3.359452E-1,3.793061E-1,-1.419686E-1,-9.75233E-1,-7.0100445E-1,-1.6019123E0,-1.2324767E0,9.0697414E-1,-9.8557836E-1,4.1911334E-1,3.3841725E-2,-9.2550874E-1,-7.147068E-1,4.465691E-1,-7.4620485E-1,5.05931E-1,1.6840902E-1,1.43842E0,-7.469217E-1,2.7160951E-1,1.4661477E0,3.1475475E-1,-1.2975745E-1,-1.0105169E0,4.8592237E-1,-1.3477668E-1,5.587281E-1,-1.0273173E0,-1.0920659E0,2.4144556E-1,-6.8268046E-2,-1.2272178E0,-7.117441E-1,-1.69411E0,-5.8441855E-2,-1.4804319E0,-1.4294157E0,-1.933398E-1,6.548429E-1,-2.0943488E-1,-9.513608E-1,4.1058192E-1,-4.9618372E-1,-1.09374E0,-5.5014808E-2,-1.5019041E0,6.634809E-1,-8.483887E-1,-3.6934793E-1,5.7971174E-1,1.5527092E0,6.5946E-1,-1.0897398E0,-2.3369701E-1,1.8709412E-2,1.3313289E0,5.3928214E-1,1.8047508E0,-7.715789E-1,1.0212485E0,-8.4669226E-1,3.799655E-2,-6.214166E-1,-1.5293578E0,6.5178573E-1,1.490289E-1,-8.104159E-1,2.3131253E-1],"categories":[],"categories_nodes":[],"categories_segments":[],"categories_sizes":[],"default_left":[1,1,1,1,1,1,1,1,1,1,1,1,1,1,1,0,1,1,0,1,1,1,1,1,0,1,0,1,1,1,1,1,1,1,1,1,0,1,1,1,1,1,1,0,1,0,1,1,1,1,1,1,1,1,1,0,0,0,0,0,0,0,0,0,0,0,0,0,0,0,0,0,0,0,0,0,0,0,0,0,0,0,0,0,0,0,0,0,0,0,0,0,0,0,0,0,0],"id":7,"left_children":[1,3,5,7,9,11,13,15,17,19,21,23,25,27,29,-1,31,33,-1,35,37,39,41,43,-1,45,-1,47,49,51,53,55,57,59,61,63,-1,65,67,69,71,73,75,-1,77,-1,79,81,83,85,87,89,91,93,95,-1,-1,-1,-1,-1,-1,-1,-1,-1,-1,-1,-1,-1,-1,-1,-1,-1,-1,-1,-1,-1,-1,-1,-1,-1,-1,-1,-1,-1,-1,-1,-1,-1,-1,-1,-1,-1,-1,-1,-1,-1,-1],"loss_changes":[4.275042E2,7.5287415E1,2.0261597E2,3.959195E1,5.822708E1,1.0099954E2,1.6891673E2,2.9003227E1,1.9668045E1,6.078944E1,7.1908646E1,3.396807E1,4.933957E1,1.3438724E2,1.3496533E2,0E0,2.4154915E1,1.312561E1,0E0,5.7874355E1,5.0875755E1,6.188394E1,2.8043774E1,3.1467323E1,0E0,2.7592865E1,0E0,8.577557E1,1.9982513E1,4.6275677E1,6.928284E1,3.0957453E1,1.8788261E1,7.566659E0,7.1123657E0,1.7362045E1,0E0,1.00879345E1,3.0931301E1,3.1829073E1,2.4045929E1,1.4194409E1,2.4637989E1,0E0,2.6907257E1,0E0,1.7061462E1,7.649982E1,2.7437052E1,1.0540955E1,2.2074203E1,3.0903797E1,1.4788452E1,5.8360855E1,5.4035145E1,0E0,0E0,0E0,0E0,0E0,0E0,0E0,0E0,0E0,0E0,0E0,0E0,0E0,0E0,0E0,0E0,0E0,0E0,0E0,0E0,0E0,0E0,0E0,0E0,0E0,0E0,0E0,0E0,0E0,0E0,0E0,0E0,0E0,0E0,0E0,0E0,0E0,0E0,0E0,0E0,0E0,0E0],"parents":[2147483647,0,0,1,1,2,2,3,3,4,4,5,5,6,6,7,7,8,8,9,9,10,10,11,11,12,12,13,13,14,14,16,16,17,17,19,19,20,20,21,21,22,22,23,23,25,25,27,27,28,28,29,29,30,30,31,31,32,32,33,33,34,34,35,35,37,37,38,38,39,39,40,40,41,41,42,42,44,44,46,46,47,47,48,48,49,49,50,50,51,51,52,52,53,53,54,54],"right_children":[2,4,6,8,10,12,14,16,18,20,22,24,26,28,30,-1,32,34,-1,36,38,40,42,44,-1,46,-1,48,50,52,54,56,58,60,62,64,-1,66,68,70,72,74,76,-1,78,-1,80,82,84,86,88,90,92,94,96,-1,-1,-1,-1,-1,-1,-1,-1,-1,-1,-1,-1,-1,-1,-1,-1,-1,-1,-1,-1,-1,-1,-1,-1,-1,-1,-1,-1,-1,-1,-1,-1,-1,-1,-1,-1,-1,-1,-1,-1,-1,-1],"split_conditions":[4.2883563E0,1.9486614E0,-3.3766454E-1,1.1493604E0,4.7381657E-1,1.6646512E0,-6.099783E-1,-1.4727278E1,2.4891996E0,-1.1121942E-1,3.1165905E0,2.4490457E0,1.2968138E0,1.7646017E0,1.042305E0,4.929094E-3,5.708599E-1,1.875649E-2,-4.6704756E-4,2.6636586E-1,-3.8913481E0,-2.950463E0,-1.9065247E0,-2.6979003E0,-1.2997881E-2,-5.9989605E0,-5.148026E-3,1.0081463E0,-5.1681507E-1,7.6575536E-1,3.382398E0,1.6313165E0,2.8252373E0,2.1326516E0,-5.5094874E-1,-1.8811363E0,9.069741E-3,5.1615596E-1,1.5692723E-1,-5.5332668E-2,1.4441738E0,5.2105844E-1,9.757448E-1,-7.4620484E-3,-1.2966713E1,1.6840901E-3,-2.78517E0,-5.066346E-2,2.3654017E0,8.8284034E-1,-2.8368917E0,-1.5689543E-1,8.4666485E-1,-3.2830625E0,2.2895617E0,5.5872807E-3,-1.02731725E-2,-1.0920659E-2,2.4144554E-3,-6.8268046E-4,-1.2272177E-2,-7.117441E-3,-1.69411E-2,-5.8441854E-4,-1.4804319E-2,-1.4294157E-2,-1.933398E-3,6.548429E-3,-2.0943487E-3,-9.513608E-3,4.105819E-3,-4.961837E-3,-1.0937399E-2,-5.501481E-4,-1.5019041E-2,6.6348086E-3,-8.483887E-3,-3.693479E-3,5.797117E-3,1.5527092E-2,6.5946E-3,-1.0897398E-2,-2.33697E-3,1.8709412E-4,1.3313289E-2,5.3928215E-3,1.8047508E-2,-7.715789E-3,1.0212485E-2,-8.466923E-3,3.799655E-4,-6.214166E-3,-1.5293578E-2,6.5178573E-3,1.490289E-3,-8.1041595E-3,2.3131252E-3],"split_indices":[181,61,243,389,44,526,177,920,48,68,225,151,157,67,242,0,227,589,0,164,142,220,15,128,0,460,0,74,229,196,83,482,385,363,989,180,0,10,827,182,463,209,247,0,440,0,600,176,265,110,2,725,256,560,226,0,0,0,0,0,0,0,0,0,0,0,0,0,0,0,0,0,0,0,0,0,0,0,0,0,0,0,0,0,0,0,0,0,0,0,0,0,0,0,0,0,0],"split_type":[0,0,0,0,0,0,0,0,0,0,0,0,0,0,0,0,0,0,0,0,0,0,0,0,0,0,0,0,0,0,0,0,0,0,0,0,0,0,0,0,0,0,0,0,0,0,0,0,0,0,0,0,0,0,0,0,0,0,0,0,0,0,0,0,0,0,0,0,0,0,0,0,0,0,0,0,0,0,0,0,0,0,0,0,0,0,0,0,0,0,0,0,0,0,0,0,0],"sum_hessian":[4.0475374E3,1.1746757E3,2.8728618E3,3.3084445E2,8.438312E2,6.792036E2,2.1936582E3,1.9752307E2,1.333214E2,3.094865E2,5.3434467E2,4.43075E2,2.361286E2,5.991391E2,1.5945189E3,2.0227135E1,1.7729593E2,1.2232987E2,1.0991523E1,7.4177574E1,2.3530893E2,4.2314267E2,1.1120201E2,4.3257712E2,1.049792E1,2.211372E2,1.4991393E1,5.3671594E2,6.2423187E1,3.3264963E2,1.2618694E3,4.7977077E1,1.2931886E2,2.197745E1,1.00352425E2,5.8938446E1,1.5239131E1,2.847543E1,2.068335E2,8.3702034E1,3.3944064E2,2.6492437E1,8.470957E1,2.0234453E1,4.1234265E2,1.8991106E1,2.021461E2,4.3524713E2,1.0146881E2,3.5688248E1,2.673494E1,2.5568884E2,7.696079E1,1.0451659E3,2.1670345E2,2.6987286E1,2.098979E1,1.180823E2,1.1236562E1,1.0491661E1,1.1485789E1,1.0236729E1,9.011569E1,1.0492682E1,4.8445763E1,1.7735283E1,1.0740147E1,1.5038976E2,5.6443733E1,2.273172E1,6.0970314E1,9.667533E1,2.4276532E2,1.499561E1,1.1496828E1,7.297375E1,1.1735819E1,3.1744444E1,3.805982E2,1.7541576E2,2.6730349E1,2.6027097E2,1.7497617E2,8.274058E1,1.8728233E1,1.0242874E1,2.5445374E1,1.0499048E1,1.6235891E1,4.7716087E1,2.0797275E2,4.523494E1,3.1725855E1,6.997312E2,3.4543466E2,7.572844E1,1.40975E2],"tree_param":{"num_deleted":"0","num_feature":"4020","num_nodes":"97","size_leaf_vector":"0"}},{"base_weights":[-6.765726E-5,-5.031417E-1,2.0572588E-1,2.141165E-1,-5.910616E-1,-8.982085E-3,5.28829E-1,6.451657E-1,-7.12658E-1,-2.9015285E-1,-8.6883473E-1,-6.7960554E-1,9.131786E-2,6.972151E-1,-5.8558893E-1,8.863484E-1,-5.74516E-1,3.7646228E-1,-1.1057605E0,1.0639012E0,-3.7568E-1,-6.400525E-1,-1.1748738E0,4.5575723E-1,-8.1430084E-1,-4.8874775E-1,1.8074578E-1,1.0162764E0,4.6971822E-1,2.8432435E-1,-1.1373872E0,1.1124187E0,-1.6946948E-1,-4.007859E-1,-1.5998132E0,1.7465442E0,1.7622314E-1,1.5058227E0,-4.3497851E-1,-3.0269417E-1,-9.590126E-1,1.1712116E-1,-1.2398014E0,1.183299E0,-4.0089273E-1,2.653696E-1,-9.618167E-1,-8.6526597E-1,5.155939E-1,1.6124274E0,1.4665717E-1,4.4543374E-1,1.1783286E0,3.177699E-1,1.0063947E0,-1.2584786E-1,1.4835272E0,-4.612093E-1,-1.6762452E0,4.3027002E-1,1.4076736E0,-5.659015E-1,3.648943E-1,2.6011944E-1,-1.0784969E0,3.5942966E-1,-1.0511425E0,-1.3178169E0,-2.265339E-1,-6.018835E-1,9.3495846E-1,-1.4142946E0,-6.3801104E-1,-1.3259753E0,-3.5176557E-1,-7.3739135E-1,8.1578296E-1,1.0664865E0,1.83887E0,3.7605253E-1,-2.1548897E-2,-9.786228E-1,6.5270054E-1,-4.300931E-1,1.2365925E0,4.2060086E-1,-7.35017E-1,1.3518227E0,4.8909912E-1,-8.80034E-1,5.063024E-1,-9.8790294E-1,9.202737E-1,-1.8427873E0,-1.059609E0],"categories":[],"categories_nodes":[],"categories_segments":[],"categories_sizes":[],"default_left":[1,1,1,1,1,1,1,1,1,1,1,1,1,1,1,1,0,0,1,1,1,1,1,1,1,1,1,1,1,1,1,1,0,0,0,0,0,0,1,1,1,0,1,0,0,1,1,1,1,1,1,1,1,1,1,1,0,1,1,0,0,0,0,0,0,0,0,0,0,0,0,0,0,0,0,0,0,0,0,0,0,0,0,0,0,0,0,0,0,0,0,0,0,0,0],"id":8,"left_children":[1,3,5,7,9,11,13,15,17,19,21,23,25,27,29,31,-1,-1,33,35,37,39,41,43,45,47,49,51,53,55,57,59,-1,-1,-1,-1,-1,-1,61,63,65,-1,67,-1,-1,69,71,73,75,77,79,81,83,85,87,89,-1,91,93,-1,-1,-1,-1,-1,-1,-1,-1,-1,-1,-1,-1,-1,-1,-1,-1,-1,-1,-1,-1,-1,-1,-1,-1,-1,-1,-1,-1,-1,-1,-1,-1,-1,-1,-1,-1],"loss_changes":[4.1917825E2,7.4251434E1,1.9934328E2,5.2027077E1,8.729074E1,1.16244385E2,2.1567703E2,2.6581345E1,1.8164106E1,5.8795387E1,3.734497E1,3.4755882E1,7.80773E1,7.189337E1,7.286606E1,1.7944904E1,0E0,0E0,1.0056244E1,1.8003757E1,5.3653755E1,3.3449295E1,1.9569916E1,1.5735692E1,3.2324936E1,7.648935E1,6.3371666E1,3.7786133E1,4.7295288E1,2.9431484E1,3.299257E1,1.1761574E1,0E0,0E0,0E0,0E0,0E0,0E0,4.851335E1,6.7453476E1,1.9898987E1,0E0,1.713742E1,0E0,0E0,1.5073396E1,2.5084702E1,3.4223236E1,2.1461117E1,1.7736816E0,4.9171165E1,2.814182E1,3.0704102E1,4.9731445E1,2.2278519E1,2.2006496E1,0E0,3.1816923E1,3.304596E0,0E0,0E0,0E0,0E0,0E0,0E0,0E0,0E0,0E0,0E0,0E0,0E0,0E0,0E0,0E0,0E0,0E0,0E0,0E0,0E0,0E0,0E0,0E0,0E0,0E0,0E0,0E0,0E0,0E0,0E0,0E0,0E0,0E0,0E0,0E0,0E0],"parents":[2147483647,0,0,1,1,2,2,3,3,4,4,5,5,6,6,7,7,8,8,9,9,10,10,11,11,12,12,13,13,14,14,15,15,18,18,19,19,20,20,21,21,22,22,23,23,24,24,25,25,26,26,27,27,28,28,29,29,30,30,31,31,38,38,39,39,40,40,42,42,45,45,46,46,47,47,48,48,49,49,50,50,51,51,52,52,53,53,54,54,55,55,57,57,58,58],"right_children":[2,4,6,8,10,12,14,16,18,20,22,24,26,28,30,32,-1,-1,34,36,38,40,42,44,46,48,50,52,54,56,58,60,-1,-1,-1,-1,-1,-1,62,64,66,-1,68,-1,-1,70,72,74,76,78,80,82,84,86,88,90,-1,92,94,-1,-1,-1,-1,-1,-1,-1,-1,-1,-1,-1,-1,-1,-1,-1,-1,-1,-1,-1,-1,-1,-1,-1,-1,-1,-1,-1,-1,-1,-1,-1,-1,-1,-1,-1,-1],"split_conditions":[4.2883563E0,-7.819411E-1,1.6817267E0,3.559022E-1,8.341162E-1,-7.7284867E-1,4.2394876E0,1.6526728E0,-6.667575E-2,-1.4134679E0,7.583064E-3,-4.5431147E0,-5.8491683E-1,4.3149704E-1,5.098048E0,-1.0956848E0,-5.74516E-3,3.7646226E-3,3.2643563E-1,-7.975957E0,-9.3711853E-1,3.622678E-1,-1.6928492E0,3.85356E-3,-5.6371087E-1,1.0058001E0,-1.0200853E0,2.959313E0,2.5449915E0,5.4948378E0,-2.8071606E-1,1.3619046E0,-1.6946947E-3,-4.0078587E-3,-1.5998133E-2,1.7465442E-2,1.7622313E-3,1.5058226E-2,2.9960306E0,-1.7245433E0,-3.4640285E-1,1.1712116E-3,2.6631956E0,1.1832989E-2,-4.0089274E-3,2.5557005E0,-1.5212981E-1,4.369462E-1,-1.6574438E0,1.6686544E0,6.156119E-1,-9.366135E-1,-2.67164E0,3.8431468E0,-2.7950559E0,-7.377444E-2,1.4835271E-2,-1.7032218E-1,1.5470225E-1,4.3027E-3,1.4076736E-2,-5.659015E-3,3.648943E-3,2.6011944E-3,-1.0784969E-2,3.5942965E-3,-1.0511424E-2,-1.3178168E-2,-2.265339E-3,-6.0188347E-3,9.349585E-3,-1.4142945E-2,-6.38011E-3,-1.3259753E-2,-3.5176557E-3,-7.373913E-3,8.15783E-3,1.0664864E-2,1.83887E-2,3.7605253E-3,-2.1548897E-4,-9.786228E-3,6.527005E-3,-4.300931E-3,1.2365925E-2,4.2060087E-3,-7.35017E-3,1.3518227E-2,4.890991E-3,-8.80034E-3,5.063024E-3,-9.879029E-3,9.202737E-3,-1.8427873E-2,-1.059609E-2],"split_indices":[181,143,406,124,227,725,1041,131,284,833,727,1220,196,424,661,180,0,0,509,480,1513,44,708,1047,263,45,1533,521,365,1021,1067,461,0,0,0,0,0,0,305,120,107,0,325,0,0,721,176,254,68,1285,43,177,162,143,360,58,0,249,78,0,0,0,0,0,0,0,0,0,0,0,0,0,0,0,0,0,0,0,0,0,0,0,0,0,0,0,0,0,0,0,0,0,0,0,0],"split_type":[0,0,0,0,0,0,0,0,0,0,0,0,0,0,0,0,0,0,0,0,0,0,0,0,0,0,0,0,0,0,0,0,0,0,0,0,0,0,0,0,0,0,0,0,0,0,0,0,0,0,0,0,0,0,0,0,0,0,0,0,0,0,0,0,0,0,0,0,0,0,0,0,0,0,0,0,0,0,0,0,0,0,0,0,0,0,0,0,0,0,0,0,0,0,0],"sum_hessian":[4.0468818E3,1.1744432E3,2.8724385E3,1.2808432E2,1.0463589E3,1.7262715E3,1.146167E3,8.7630585E1,4.045373E1,5.0324423E2,5.431147E2,2.2384277E2,1.5024287E3,9.960416E2,1.5012534E2,7.339131E1,1.4239276E1,1.0740021E1,2.971371E1,2.9218689E1,4.7402554E2,3.1255377E2,2.305609E2,2.3486721E1,2.0035605E2,2.000912E2,1.3023375E3,4.1314465E2,5.82897E2,5.845516E1,9.167018E1,6.0404068E1,1.2987241E1,1.2989678E1,1.6724031E1,1.5969933E1,1.3248756E1,1.3737875E1,4.6028766E2,1.5284326E2,1.5971053E2,1.0993671E1,2.1956723E2,1.2494227E1,1.0992495E1,2.398809E1,1.7636797E2,1.4563318E2,5.445803E1,2.9210958E1,1.2731266E3,9.218034E1,3.2096432E2,4.5551883E2,1.2737815E2,4.4223965E1,1.4231193E1,4.1478016E1,5.019216E1,1.898921E1,4.1414856E1,3.9579633E2,6.449134E1,8.896642E1,6.3876842E1,1.0241802E1,1.4946872E2,2.0359137E2,1.5975855E1,1.04954605E1,1.3492629E1,7.216237E1,1.042056E2,7.592843E1,6.970474E1,1.0243862E1,4.421417E1,1.0237839E1,1.897312E1,5.380759E2,7.3505066E2,1.1239077E1,8.094126E1,1.099715E1,3.0996716E2,4.1553223E2,3.9986607E1,7.540958E1,5.196857E1,1.9986712E1,2.4237251E1,3.023554E1,1.1242475E1,3.795324E1,1.2238924E1],"tree_param":{"num_deleted":"0","num_feature":"4020","num_nodes":"95","size_leaf_vector":"0"}},{"base_weights":[-6.552339E-5,-4.9825063E-1,2.0370017E-1,-8.964501E-1,-3.41298E-1,6.7329913E-1,5.8097444E-2,-6.099385E-1,-1.3133737E0,-1.4638383E-3,-5.377733E-1,4.0630925E-1,1.217931E0,-3.8822865E-1,2.2591415E-1,4.9454737E-1,-7.3806864E-1,-1.4265425E0,-4.072387E-2,-7.74309E-1,2.4433245E-1,-7.225278E-1,1.6522375E-1,-6.1672354E-1,4.7370195E-1,-5.884243E-1,1.3673083E0,-5.480239E-1,9.7319365E-1,-3.3350086E-1,3.7353414E-1,-1.379252E-1,-9.580823E-1,-6.9058245E-1,-1.5793966E0,-1.2153664E0,9.004728E-1,-9.7113544E-1,4.1548875E-1,3.7777886E-2,-9.096365E-1,-7.068584E-1,4.4302934E-1,-1.7498902E0,1.2995103E-1,9.5113933E-1,3.342788E-1,1.5062437E0,6.108413E-1,-7.3856044E-1,2.6838598E-1,1.4490638E0,3.0899027E-1,-1.4432211E-1,-1.0544508E0,4.7886792E-1,-1.3433038E-1,5.566556E-1,-1.0158538E0,-1.0736053E0,2.4383315E-1,-6.590077E-2,-1.2104698E0,-6.98985E-1,-1.6706791E0,-1.757828E0,-6.513527E-1,-3.1430674E-1,-1.5056162E0,6.4809394E-1,-2.0482323E-1,-9.362108E-1,4.1001964E-1,-4.849766E-1,-1.0761079E0,-5.39858E-2,-1.4861062E0,1.1776178E0,6.163622E-2,1.4797018E-1,1.1927893E0,4.2496347E-1,-5.2146196E-1,6.56616E-1,1.6077429E0,-5.8429595E-2,1.4037774E0,-1.0768237E0,-2.3236677E-1,1.8418303E-2,1.3164083E0,5.3313166E-1,1.7839766E0,-7.652515E-1,1.0080166E0,-8.967187E-1,2.8867835E-2,-3.4818852E-1,-1.3600544E0,8.989466E-2,6.183332E-1,-8.0262345E-1,2.2776668E-1],"categories":[],"categories_nodes":[],"categories_segments":[],"categories_sizes":[],"default_left":[1,1,1,1,1,1,1,1,1,1,1,1,1,1,1,0,1,1,0,1,1,1,1,1,1,0,1,1,1,1,1,1,1,1,1,1,0,1,1,1,1,1,1,0,0,1,1,1,1,1,1,1,1,1,1,1,1,0,0,0,0,0,0,0,0,0,0,0,0,0,0,0,0,0,0,0,0,0,0,0,0,0,0,0,0,0,0,0,0,0,0,0,0,0,0,0,0,0,0,0,0,0,0],"id":9,"left_children":[1,3,5,7,9,11,13,15,17,19,21,23,25,27,29,-1,31,33,-1,35,37,39,41,43,45,-1,47,49,51,53,55,57,59,61,63,65,-1,67,69,71,73,75,77,-1,-1,79,81,83,85,87,89,91,93,95,97,99,101,-1,-1,-1,-1,-1,-1,-1,-1,-1,-1,-1,-1,-1,-1,-1,-1,-1,-1,-1,-1,-1,-1,-1,-1,-1,-1,-1,-1,-1,-1,-1,-1,-1,-1,-1,-1,-1,-1,-1,-1,-1,-1,-1,-1,-1,-1],"loss_changes":[4.1094095E2,7.313718E1,1.964047E2,3.8811523E1,5.638595E1,9.8367584E1,1.6443231E2,2.8444183E1,1.927008E1,5.915055E1,6.9621796E1,3.1850288E1,6.1017365E1,1.3104726E2,1.3185994E2,0E0,2.3396042E1,1.2770035E1,0E0,5.659475E1,4.9551605E1,6.0343903E1,2.7491041E1,2.4530941E1,2.8305725E1,0E0,2.077353E1,8.381731E1,1.9584877E1,4.5345905E1,6.760947E1,3.0426476E1,1.8342857E1,7.378911E0,6.9689636E0,1.7181274E1,0E0,9.869347E0,3.0114082E1,3.1087439E1,2.3531921E1,1.390396E1,2.3935795E1,0E0,0E0,1.858155E1,2.6168598E1,1.3923523E1,1.7971397E1,7.442183E1,2.6814709E1,1.0292671E1,2.159133E1,3.461086E1,1.44583435E1,5.668611E1,5.2857025E1,0E0,0E0,0E0,0E0,0E0,0E0,0E0,0E0,0E0,0E0,0E0,0E0,0E0,0E0,0E0,0E0,0E0,0E0,0E0,0E0,0E0,0E0,0E0,0E0,0E0,0E0,0E0,0E0,0E0,0E0,0E0,0E0,0E0,0E0,0E0,0E0,0E0,0E0,0E0,0E0,0E0,0E0,0E0,0E0,0E0,0E0],"parents":[2147483647,0,0,1,1,2,2,3,3,4,4,5,5,6,6,7,7,8,8,9,9,10,10,11,11,12,12,13,13,14,14,16,16,17,17,19,19,20,20,21,21,22,22,23,23,24,24,26,26,27,27,28,28,29,29,30,30,31,31,32,32,33,33,34,34,35,35,37,37,38,38,39,39,40,40,41,41,42,42,45,45,46,46,47,47,48,48,49,49,50,50,51,51,52,52,53,53,54,54,55,55,56,56],"right_children":[2,4,6,8,10,12,14,16,18,20,22,24,26,28,30,-1,32,34,-1,36,38,40,42,44,46,-1,48,50,52,54,56,58,60,62,64,66,-1,68,70,72,74,76,78,-1,-1,80,82,84,86,88,90,92,94,96,98,100,102,-1,-1,-1,-1,-1,-1,-1,-1,-1,-1,-1,-1,-1,-1,-1,-1,-1,-1,-1,-1,-1,-1,-1,-1,-1,-1,-1,-1,-1,-1,-1,-1,-1,-1,-1,-1,-1,-1,-1,-1,-1,-1,-1,-1,-1,-1],"split_conditions":[4.2883563E0,1.9486614E0,-3.3766454E-1,1.1493604E0,4.7381657E-1,1.8327742E0,-6.099783E-1,-1.4727278E1,2.4891996E0,-1.1121942E-1,3.1165905E0,-2.2719364E0,-2.4317565E0,1.7646017E0,1.042305E0,4.9454737E-3,5.708599E-1,1.875649E-2,-4.072387E-4,2.6636586E-1,-3.8913481E0,-2.950463E0,-1.9065247E0,6.371745E-1,-4.903788E-1,-5.884243E-3,-2.9581046E0,1.0081463E0,-5.1681507E-1,7.362287E-1,3.382398E0,1.6313165E0,2.8252373E0,2.1326516E0,-5.5094874E-1,-8.679489E-2,9.004728E-3,8.4600616E-1,1.5692723E-1,-5.5332668E-2,1.4441738E0,5.2105844E-1,-9.374822E-3,-1.7498901E-2,1.2995102E-3,3.5208874E0,1.8101037E0,-1.3623025E0,-1.9207952E0,-5.066346E-2,2.3654017E0,8.8284034E-1,-2.8368917E0,-1.854527E-1,9.478285E-2,4.9187052E-1,2.2895617E0,5.5665555E-3,-1.0158537E-2,-1.0736053E-2,2.4383315E-3,-6.590077E-4,-1.2104698E-2,-6.9898497E-3,-1.670679E-2,-1.757828E-2,-6.5135267E-3,-3.1430672E-3,-1.5056161E-2,6.480939E-3,-2.0482321E-3,-9.362108E-3,4.100196E-3,-4.849766E-3,-1.0761078E-2,-5.39858E-4,-1.4861061E-2,1.1776177E-2,6.163622E-4,1.4797018E-3,1.1927892E-2,4.2496347E-3,-5.2146195E-3,6.5661594E-3,1.6077429E-2,-5.8429595E-4,1.4037773E-2,-1.0768237E-2,-2.3236678E-3,1.8418302E-4,1.3164083E-2,5.3313165E-3,1.7839765E-2,-7.652515E-3,1.0080165E-2,-8.967186E-3,2.8867833E-4,-3.4818852E-3,-1.3600543E-2,8.989466E-4,6.1833323E-3,-8.026234E-3,2.2776667E-3],"split_indices":[181,61,243,389,44,506,177,920,48,68,225,68,122,67,242,0,227,589,0,164,142,220,15,106,305,0,600,74,229,236,83,482,385,363,989,185,0,203,827,182,463,209,661,0,0,421,110,515,100,176,265,110,2,725,376,466,226,0,0,0,0,0,0,0,0,0,0,0,0,0,0,0,0,0,0,0,0,0,0,0,0,0,0,0,0,0,0,0,0,0,0,0,0,0,0,0,0,0,0,0,0,0,0],"split_type":[0,0,0,0,0,0,0,0,0,0,0,0,0,0,0,0,0,0,0,0,0,0,0,0,0,0,0,0,0,0,0,0,0,0,0,0,0,0,0,0,0,0,0,0,0,0,0,0,0,0,0,0,0,0,0,0,0,0,0,0,0,0,0,0,0,0,0,0,0,0,0,0,0,0,0,0,0,0,0,0,0,0,0,0,0,0,0,0,0,0,0,0,0,0,0,0,0,0,0,0,0,0,0],"sum_hessian":[4.04616E3,1.1741195E3,2.8720403E3,3.3061505E2,8.435044E2,6.788818E2,2.1931587E3,1.9741417E2,1.3320087E2,3.0938428E2,5.341201E2,4.567295E2,2.2215228E2,5.989295E2,1.5942291E3,2.0223886E1,1.7719028E2,1.2221236E2,1.0988513E1,7.413501E1,2.3524927E2,4.2293967E2,1.1118047E2,2.772396E1,4.2900552E2,1.6743313E1,2.0540897E2,5.3655005E2,6.2379425E1,3.3259204E2,1.2616371E3,4.7969128E1,1.2922116E2,2.1966454E1,1.002459E2,5.8898323E1,1.5236686E1,2.8460787E1,2.0678848E2,8.368567E1,3.39254E2,2.6487371E1,8.46931E1,1.0478312E1,1.7245651E1,9.564819E1,3.3335736E2,1.7269925E2,3.2709713E1,4.3510022E2,1.0144984E2,3.5653633E1,2.672579E1,2.644104E2,6.8181656E1,1.0449633E3,2.166738E2,2.6985365E1,2.098376E1,1.1798746E2,1.1233695E1,1.0489424E1,1.1477029E1,1.023054E1,9.0015366E1,2.894384E1,2.9954483E1,1.348141E1,1.4979377E1,1.5036113E2,5.6427353E1,2.2720724E1,6.0964943E1,9.664101E1,2.4261299E2,1.4994172E1,1.1493199E1,2.8230879E1,5.646222E1,2.2494808E1,7.315338E1,3.0187085E2,3.1486506E1,1.9226622E1,1.5347264E2,1.8240385E1,1.4469327E1,2.601368E2,1.7496341E2,8.273418E1,1.871566E1,1.0240201E1,2.5413433E1,1.0498021E1,1.622777E1,4.869312E1,2.1571727E2,2.1238346E1,4.6943314E1,2.7622034E2,7.687429E2,7.5715416E1,1.4095837E2],"tree_param":{"num_deleted":"0","num_feature":"4020","num_nodes":"103","size_leaf_vector":"0"}},{"base_weights":[-8.222819E-5,-4.9348E-1,2.0171191E-1,2.1320441E-1,-5.801162E-1,-9.614648E-3,5.1982534E-1,6.231546E-1,-7.424337E-1,-2.8341982E-1,-8.541456E-1,-6.7166364E-1,8.938279E-2,6.861661E-1,-5.80993E-1,8.7037736E-1,-6.12055E-1,-1.29528E0,-1.8811575E-1,-1.3477881E0,-1.7570502E-1,-6.2829494E-1,-1.1563792E0,4.5271826E-1,-8.050866E-1,-4.2581308E-1,1.8721086E-1,1.0011265E0,4.6170685E-1,2.7984792E-1,-1.1270788E0,-1.9244733E-1,1.1341842E0,-1.6802725E0,-4.8397407E-1,1.3073947E0,-2.6129824E-1,-2.963735E-1,-9.422489E-1,1.2194381E-1,-1.2207037E0,1.1736784E0,-3.9632386E-1,2.5856322E-1,-9.5041436E-1,-6.654793E-1,8.601919E-1,1.6867787E0,1.5657851E-1,1.0742888E0,-2.2048886E-1,3.1114033E-1,9.949449E-1,-1.2609445E-1,1.4673253E0,3.4688443E-1,-1.3611057E0,1.1934456E-1,1.3363043E0,-1.8343368E0,-1.2191055E0,6.824666E-1,1.7808124E0,4.0717192E-2,-6.9672275E-1,2.5699133E-1,-1.0598575E0,-1.3135283E0,-6.015959E-1,-2.4713565E-1,-1.3006732E0,-5.9844387E-1,9.2065763E-1,-1.3971438E0,-6.308828E-1,-8.830833E-1,2.0973971E-1,1.653683E0,-2.8396709E-2,1.9004202E-1,-9.604016E-1,7.8866667E-1,1.3788402E0,6.8461907E-1,-9.312735E-1,4.1276008E-1,-7.2969574E-1,2.3223819E-1,1.1729039E0,-8.7202203E-1,4.991601E-1,4.4005804E-2,-1.5793154E0],"categories":[],"categories_nodes":[],"categories_segments":[],"categories_sizes":[],"default_left":[1,1,1,1,1,1,1,1,1,1,1,1,1,1,1,1,0,0,0,1,1,1,1,1,1,1,1,1,1,1,1,0,1,1,0,1,1,1,1,0,1,0,0,1,1,1,1,0,1,1,1,1,1,1,0,0,1,0,0,0,0,0,0,0,0,0,0,0,0,0,0,0,0,0,0,0,0,0,0,0,0,0,0,0,0,0,0,0,0,0,0,0,0],"id":10,"left_children":[1,3,5,7,9,11,13,15,17,19,21,23,25,27,29,31,-1,-1,-1,33,35,37,39,41,43,45,47,49,51,53,55,-1,57,59,-1,61,63,65,67,-1,69,-1,-1,71,73,75,77,-1,79,81,83,85,87,89,-1,-1,91,-1,-1,-1,-1,-1,-1,-1,-1,-1,-1,-1,-1,-1,-1,-1,-1,-1,-1,-1,-1,-1,-1,-1,-1,-1,-1,-1,-1,-1,-1,-1,-1,-1,-1,-1,-1],"loss_changes":[4.0296924E2,7.205112E1,1.9311057E2,5.101177E1,8.486539E1,1.1324403E2,2.1034933E2,2.8272228E1,1.1766533E1,5.7557686E1,3.6385162E1,3.4081947E1,7.583987E1,6.998773E1,7.13245E1,2.1555878E1,0E0,0E0,0E0,1.2449135E1,5.8599136E1,3.237448E1,1.9170685E1,1.5450764E1,3.1358322E1,7.459994E1,5.7796955E1,3.722162E1,4.6555466E1,2.8833601E1,3.242192E1,0E0,1.2376228E1,1.04026794E-1,0E0,6.2422295E0,5.7195976E1,6.524046E1,1.9518936E1,0E0,1.6833374E1,0E0,0E0,1.4725537E1,2.4426208E1,3.8850098E1,2.6957611E1,0E0,4.6522915E1,3.2889313E1,1.6214243E1,4.8599846E1,1.7110931E1,2.1521515E1,0E0,0E0,2.4639404E1,0E0,0E0,0E0,0E0,0E0,0E0,0E0,0E0,0E0,0E0,0E0,0E0,0E0,0E0,0E0,0E0,0E0,0E0,0E0,0E0,0E0,0E0,0E0,0E0,0E0,0E0,0E0,0E0,0E0,0E0,0E0,0E0,0E0,0E0,0E0,0E0],"parents":[2147483647,0,0,1,1,2,2,3,3,4,4,5,5,6,6,7,7,8,8,9,9,10,10,11,11,12,12,13,13,14,14,15,15,19,19,20,20,21,21,22,22,23,23,24,24,25,25,26,26,27,27,28,28,29,29,30,30,32,32,33,33,35,35,36,36,37,37,38,38,40,40,43,43,44,44,45,45,46,46,48,48,49,49,50,50,51,51,52,52,53,53,56,56],"right_children":[2,4,6,8,10,12,14,16,18,20,22,24,26,28,30,32,-1,-1,-1,34,36,38,40,42,44,46,48,50,52,54,56,-1,58,60,-1,62,64,66,68,-1,70,-1,-1,72,74,76,78,-1,80,82,84,86,88,90,-1,-1,92,-1,-1,-1,-1,-1,-1,-1,-1,-1,-1,-1,-1,-1,-1,-1,-1,-1,-1,-1,-1,-1,-1,-1,-1,-1,-1,-1,-1,-1,-1,-1,-1,-1,-1,-1,-1],"split_conditions":[4.2883563E0,-7.819411E-1,1.6817267E0,4.224747E-1,8.341162E-1,-7.7284867E-1,4.2394876E0,1.6526728E0,-1.1353591E-1,-6.795404E-3,7.583064E-3,-4.5431147E0,-9.133863E-1,4.3149704E-1,5.098048E0,-4.9534597E0,-6.12055E-3,-1.29528E-2,-1.8811574E-3,-1.295823E-1,-1.4733682E0,3.622678E-1,-1.6928492E0,3.85356E-3,-5.6371087E-1,1.2682159E0,-1.2100459E0,3.378688E0,2.4566543E0,5.4948378E0,-1.0831856E0,-1.9244733E-3,3.8836484E-3,-7.474564E-2,-4.8397407E-3,3.266449E-1,3.8321683E0,-1.7245433E0,4.5608997E-2,1.219438E-3,-1.023207E0,1.1736784E-2,-3.9632386E-3,2.5557005E0,-1.5212981E-1,2.242566E-1,-8.3393836E-1,1.6867787E-2,1.2818067E-2,1.8733957E0,2.152446E-1,3.83656E0,2.0381222E-3,-7.377444E-2,1.4673253E-2,3.468844E-3,-1.5595872E0,1.1934456E-3,1.3363043E-2,-1.8343367E-2,-1.2191054E-2,6.824666E-3,1.7808123E-2,4.071719E-4,-6.9672274E-3,2.5699132E-3,-1.0598575E-2,-1.3135282E-2,-6.0159587E-3,-2.4713564E-3,-1.3006732E-2,-5.9844386E-3,9.206576E-3,-1.3971438E-2,-6.308828E-3,-8.830832E-3,2.097397E-3,1.653683E-2,-2.839671E-4,1.9004202E-3,-9.604015E-3,7.886667E-3,1.3788402E-2,6.8461904E-3,-9.312735E-3,4.1276007E-3,-7.296957E-3,2.3223818E-3,1.1729038E-2,-8.72022E-3,4.991601E-3,4.4005804E-4,-1.5793154E-2],"split_indices":[181,143,406,184,227,725,1041,131,595,225,727,1220,197,424,661,661,0,0,0,157,833,44,708,1047,263,87,1533,583,425,1021,183,0,448,298,0,938,223,120,134,0,850,0,0,721,176,276,229,0,1287,546,263,143,314,58,0,0,667,0,0,0,0,0,0,0,0,0,0,0,0,0,0,0,0,0,0,0,0,0,0,0,0,0,0,0,0,0,0,0,0,0,0,0,0],"split_type":[0,0,0,0,0,0,0,0,0,0,0,0,0,0,0,0,0,0,0,0,0,0,0,0,0,0,0,0,0,0,0,0,0,0,0,0,0,0,0,0,0,0,0,0,0,0,0,0,0,0,0,0,0,0,0,0,0,0,0,0,0,0,0,0,0,0,0,0,0,0,0,0,0,0,0,0,0,0,0,0,0,0,0,0,0,0,0,0,0,0,0,0,0],"sum_hessian":[4.0453074E3,1.1738163E3,2.871491E3,1.280295E2,1.0457869E3,1.7259149E3,1.145576E3,8.9838455E1,3.8191036E1,5.0310287E2,5.4268396E2,2.237557E2,1.5021592E3,9.955228E2,1.5005327E2,7.5102356E1,1.4736104E1,1.8451658E1,1.9739378E1,4.5177303E1,4.5792557E2,3.123514E2,2.3033253E2,2.3481264E1,2.0027444E2,2.3918373E2,1.2629755E3,4.1280972E2,5.8271313E2,5.843104E1,9.162222E1,1.4988244E1,6.0114113E1,3.1938799E1,1.3238505E1,2.420711E1,4.3371844E2,1.5277602E2,1.595754E2,1.0992006E1,2.1934053E2,1.2491667E1,1.0989596E1,2.3980764E1,1.7629369E2,2.020173E2,3.7166416E1,2.4200594E1,1.2387749E3,3.895974E2,2.3212318E1,4.556407E2,1.27072426E2,4.421115E1,1.4219889E1,1.2487899E1,7.913432E1,1.0248273E1,4.9865837E1,2.1708828E1,1.0229971E1,1.1486325E1,1.2720784E1,2.5662613E2,1.7709233E2,8.896127E1,6.3814754E1,7.498881E1,8.458659E1,1.6959694E1,2.0238083E2,1.0493822E1,1.3486942E1,7.21083E1,1.0418538E2,1.6178423E2,4.0233078E1,1.9178972E1,1.7987444E1,1.2035477E3,3.5227123E1,2.0289905E2,1.8669835E2,1.0226624E1,1.2985694E1,4.156619E2,3.9978806E1,2.4476158E1,1.0259627E2,1.9980173E1,2.4230978E1,1.0744691E1,6.838963E1],"tree_param":{"num_deleted":"0","num_feature":"4020","num_nodes":"93","size_leaf_vector":"0"}},{"base_weights":[-8.863163E-5,-4.8876363E-1,1.9974305E-1,-8.8141376E-1,-3.340608E-1,6.6249865E-1,5.630608E-2,-5.9758073E-1,-1.2946773E0,6.878678E-4,-5.2760893E-1,3.8723567E-1,1.176046E0,-3.859511E-1,2.207509E-1,4.9703732E-1,-7.246755E-1,-1.4067942E0,-3.544988E-2,-7.6100355E-1,2.4281703E-1,-7.652656E-1,8.172453E-3,-3.5314783E-1,4.8793092E-1,1.2722176E0,-8.6679775E-1,-5.448781E-1,9.8717946E-1,-3.3580205E-1,3.6790133E-1,-1.3400748E-1,-9.413861E-1,-6.795128E-1,-1.5579789E0,-1.1972834E0,8.940876E-1,-9.5720166E-1,4.1172597E-1,-8.3235465E-2,-9.243633E-1,6.360347E-1,-3.965586E-1,-1.1190113E0,2.2327538E-1,-4.8221785E-1,5.748456E-1,7.594658E-2,1.3860694E0,-7.3480207E-1,2.671449E-1,1.4499403E0,3.4115696E-1,-2.0391628E-1,-1.362957E0,4.7204882E-1,-1.3436423E-1,5.5412096E-1,-1.0041177E0,-1.055811E0,2.4776863E-1,-6.244259E-2,-1.1936438E0,-6.880759E-1,-1.6482606E0,-4.654854E-2,-1.4408828E0,-1.3946077E0,-1.7804122E-1,6.4097345E-1,-1.9975519E-1,-5.111552E-1,6.47299E-1,-4.019043E-1,-1.0765629E0,1.0441563E0,-3.0569392E-1,2.0566063E-1,-7.772475E-1,-2.6670882E-1,-1.7701777E0,7.7695245E-1,-8.0706227E-1,-1.6618608E0,1.8922737E-1,2.632662E-1,8.023015E-1,1.51826E0,5.2222943E-1,-1.0921779E0,-2.6833758E-1,1.9029444E-2,1.3017665E0,1.7264626E0,6.893743E-1,-7.459501E-1,1.0414662E0,-5.8825165E-2,-9.8905367E-1,-1.6442411E0,-5.7242733E-1,6.3491637E-1,1.4113934E-1,-7.957457E-1,2.2272755E-1],"categories":[],"categories_nodes":[],"categories_segments":[],"categories_sizes":[],"default_left":[1,1,1,1,1,1,1,1,1,1,1,1,1,1,1,0,1,1,0,1,1,1,1,1,1,1,0,1,1,1,1,1,1,1,1,1,0,1,1,1,1,1,1,1,1,1,1,0,1,1,1,1,1,1,1,1,1,0,0,0,0,0,0,0,0,0,0,0,0,0,0,0,0,0,0,0,0,0,0,0,0,0,0,0,0,0,0,0,0,0,0,0,0,0,0,0,0,0,0,0,0,0,0,0,0],"id":11,"left_children":[1,3,5,7,9,11,13,15,17,19,21,23,25,27,29,-1,31,33,-1,35,37,39,41,43,45,47,-1,49,51,53,55,57,59,61,63,65,-1,67,69,71,73,75,77,79,81,83,85,-1,87,89,91,93,95,97,99,101,103,-1,-1,-1,-1,-1,-1,-1,-1,-1,-1,-1,-1,-1,-1,-1,-1,-1,-1,-1,-1,-1,-1,-1,-1,-1,-1,-1,-1,-1,-1,-1,-1,-1,-1,-1,-1,-1,-1,-1,-1,-1,-1,-1,-1,-1,-1,-1,-1],"loss_changes":[3.9514468E2,7.104535E1,1.9059497E2,3.8090485E1,5.468978E1,9.5595856E1,1.5961296E2,2.7945038E1,1.8875153E1,5.7402805E1,6.811064E1,3.3263306E1,4.7589844E1,1.303638E2,1.3112657E2,0E0,2.2666306E1,1.247258E1,0E0,5.528132E1,4.8264454E1,4.012799E1,4.2266766E1,2.3964926E1,3.325807E1,3.0727875E1,0E0,8.2526825E1,1.8060913E1,4.5105515E1,6.6266235E1,2.9870878E1,1.796428E1,7.2073402E0,6.8067017E0,1.670765E1,0E0,9.785587E0,2.9247646E1,2.2583118E1,2.3449585E1,2.5373785E1,2.3348816E1,1.2423254E1,1.8587967E1,2.6218426E1,2.5262077E1,0E0,2.2805328E1,7.187546E1,2.6140144E1,6.350792E0,2.149404E1,3.3896843E1,7.496361E0,5.641635E1,5.169522E1,0E0,0E0,0E0,0E0,0E0,0E0,0E0,0E0,0E0,0E0,0E0,0E0,0E0,0E0,0E0,0E0,0E0,0E0,0E0,0E0,0E0,0E0,0E0,0E0,0E0,0E0,0E0,0E0,0E0,0E0,0E0,0E0,0E0,0E0,0E0,0E0,0E0,0E0,0E0,0E0,0E0,0E0,0E0,0E0,0E0,0E0,0E0,0E0],"parents":[2147483647,0,0,1,1,2,2,3,3,4,4,5,5,6,6,7,7,8,8,9,9,10,10,11,11,12,12,13,13,14,14,16,16,17,17,19,19,20,20,21,21,22,22,23,23,24,24,25,25,27,27,28,28,29,29,30,30,31,31,32,32,33,33,34,34,35,35,37,37,38,38,39,39,40,40,41,41,42,42,43,43,44,44,45,45,46,46,48,48,49,49,50,50,51,51,52,52,53,53,54,54,55,55,56,56],"right_children":[2,4,6,8,10,12,14,16,18,20,22,24,26,28,30,-1,32,34,-1,36,38,40,42,44,46,48,-1,50,52,54,56,58,60,62,64,66,-1,68,70,72,74,76,78,80,82,84,86,-1,88,90,92,94,96,98,100,102,104,-1,-1,-1,-1,-1,-1,-1,-1,-1,-1,-1,-1,-1,-1,-1,-1,-1,-1,-1,-1,-1,-1,-1,-1,-1,-1,-1,-1,-1,-1,-1,-1,-1,-1,-1,-1,-1,-1,-1,-1,-1,-1,-1,-1,-1,-1,-1,-1],"split_conditions":[4.2883563E0,1.9486614E0,-3.3766454E-1,1.1493604E0,4.7381657E-1,1.6646512E0,-6.1564595E-1,-1.4727278E1,2.4891996E0,-1.1121942E-1,2.9453418E0,-1.6673598E0,1.4592968E0,1.7646017E0,1.042305E0,4.970373E-3,5.708599E-1,1.875649E-2,-3.544988E-4,2.6636586E-1,-3.8913481E0,-2.950463E0,-8.7962806E-2,6.89775E-2,-2.1990795E0,-5.9989605E0,-8.6679775E-3,1.0081463E0,-4.0703642E-1,1.1043952E0,3.382398E0,1.6313165E0,2.8252373E0,2.1326516E0,-5.5094874E-1,-1.8811363E0,8.9408755E-3,5.1615596E-1,1.5692723E-1,2.1432483E0,-8.598938E-1,-1.7669284E-1,1.1782153E-2,-4.0862665E-2,1.0774318E0,6.371745E-1,1.6792148E-2,7.5946574E-4,-2.78517E0,-1.2755963E-1,2.3654017E0,4.1879582E-1,-2.650598E0,5.7826834E0,1.6701348E0,-3.2830625E0,2.2895617E0,5.5412096E-3,-1.0041177E-2,-1.0558111E-2,2.4776862E-3,-6.244259E-4,-1.1936438E-2,-6.880759E-3,-1.6482605E-2,-4.654854E-4,-1.4408828E-2,-1.3946076E-2,-1.7804122E-3,6.4097345E-3,-1.9975519E-3,-5.111552E-3,6.47299E-3,-4.019043E-3,-1.0765629E-2,1.0441563E-2,-3.0569392E-3,2.056606E-3,-7.7724745E-3,-2.667088E-3,-1.7701777E-2,7.769524E-3,-8.070623E-3,-1.6618608E-2,1.8922737E-3,2.632662E-3,8.023015E-3,1.5182599E-2,5.222294E-3,-1.0921778E-2,-2.6833757E-3,1.9029444E-4,1.3017665E-2,1.7264625E-2,6.8937433E-3,-7.459501E-3,1.0414662E-2,-5.882516E-4,-9.890537E-3,-1.644241E-2,-5.724273E-3,6.3491636E-3,1.4113934E-3,-7.957457E-3,2.2272754E-3],"split_indices":[181,61,243,389,44,526,177,920,48,68,185,102,217,67,242,0,227,589,0,164,142,220,109,129,68,460,0,74,249,216,83,482,385,363,989,180,0,10,827,42,610,960,703,124,429,106,594,0,600,236,265,307,2,521,445,560,226,0,0,0,0,0,0,0,0,0,0,0,0,0,0,0,0,0,0,0,0,0,0,0,0,0,0,0,0,0,0,0,0,0,0,0,0,0,0,0,0,0,0,0,0,0,0,0,0],"split_type":[0,0,0,0,0,0,0,0,0,0,0,0,0,0,0,0,0,0,0,0,0,0,0,0,0,0,0,0,0,0,0,0,0,0,0,0,0,0,0,0,0,0,0,0,0,0,0,0,0,0,0,0,0,0,0,0,0,0,0,0,0,0,0,0,0,0,0,0,0,0,0,0,0,0,0,0,0,0,0,0,0,0,0,0,0,0,0,0,0,0,0,0,0,0,0,0,0,0,0,0,0,0,0,0,0],"sum_hessian":[4.044427E3,1.1734319E3,2.870995E3,3.3032895E2,8.4310297E2,6.784771E2,2.192518E3,1.9728076E2,1.3304819E2,3.0924634E2,5.338566E2,4.4285794E2,2.3561916E2,5.939106E2,1.5986074E3,2.02203E1,1.7706046E2,1.2206296E2,1.0985227E1,7.407567E1,2.3517067E2,3.6952014E2,1.6433649E2,5.271948E1,3.9013846E2,2.2538582E2,1.0233337E1,5.328422E2,6.106833E1,3.3401447E2,1.264593E3,4.7959656E1,1.291008E2,2.195275E1,1.0011021E2,5.8841686E1,1.5233983E1,2.844134E1,2.0672932E2,7.018211E1,2.99338E2,6.418865E1,1.0014783E2,2.2235298E1,3.0484182E1,3.170431E1,3.5843414E2,1.973125E1,2.0565457E2,4.3191647E2,1.00925766E2,3.4855858E1,2.6212471E1,2.9706952E2,3.6944935E1,1.0474572E3,2.1713582E2,2.6983143E1,2.0976513E1,1.1787095E2,1.1229854E1,1.0487226E1,1.1465523E1,1.0223535E1,8.988667E1,1.0488123E1,4.8353565E1,1.7709612E1,1.0731729E1,1.5032388E2,5.640544E1,4.4447018E1,2.5735098E1,6.835046E1,2.3098756E2,4.47056E1,1.9483051E1,3.8966198E1,6.118163E1,1.024082E1,1.1994477E1,1.9988693E1,1.0495487E1,1.0965059E1,2.073925E1,1.5215828E2,2.0627588E2,1.7770361E2,2.795096E1,2.4379482E2,1.8812166E2,8.222545E1,1.8700317E1,2.4630772E1,1.0225088E1,1.0244505E1,1.5967966E1,2.5164177E2,4.5427746E1,2.6452686E1,1.0492247E1,7.0134796E2,3.4610922E2,7.570033E1,1.4143549E2],"tree_param":{"num_deleted":"0","num_feature":"4020","num_nodes":"105","size_leaf_vector":"0"}},{"base_weights":[-1.09946996E-4,-4.84089E-1,1.9778188E-1,8.2791366E-2,-5.893957E-1,-1.0327871E-2,5.11163E-1,5.0546193E-1,-6.324189E-1,-7.5071084E-1,-3.5606667E-2,-6.649445E-1,8.753757E-2,6.7538005E-1,-5.756073E-1,-1.2224691E0,6.827824E-1,-1.044778E0,6.1087478E-2,-4.432214E-1,-1.0392334E0,5.970883E-1,-3.6621377E-1,7.0047706E-1,-7.728864E-1,-4.7963905E-1,1.7492843E-1,9.8662984E-1,4.536882E-1,2.7529475E-1,-1.1154733E0,-7.4561095E-1,8.7558895E-1,-1.368483E0,-2.2419856E-1,-6.977882E-1,7.0162433E-1,5.0710416E-1,-5.7403225E-1,4.9136004E-1,-1.1177473E0,6.530266E-2,1.1850302E0,-5.602214E-1,5.3518194E-1,-1.1700248E0,-4.035959E-1,-8.4809095E-1,5.0315654E-1,6.513249E-1,7.646786E-2,5.348632E-1,1.1845146E0,3.0463064E-1,9.8052573E-1,-1.2680152E-1,1.4522886E0,-4.5228294E-1,-1.6444851E0,-3.5038635E-1,1.0539051E0,-6.846968E-1,-1.6731558E0,-1.6802716E-1,1.4449705E0,-9.881274E-1,-2.249999E-1,-1.225864E0,-7.6591775E-2,5.125557E-1,-8.3428377E-1,4.0641218E-1,1.5461406E0,-2.4656117E-1,-1.119234E0,1.2798098E0,-5.642047E-1,-1.5282133E0,-7.363107E-1,1.588001E-1,-8.393046E-1,-1.3035918E0,-3.4073436E-1,1.6363462E0,1.6157949E-1,1.0873075E0,2.8067636E-1,3.127181E-1,-8.7779686E-2,-5.646529E-1,7.716677E-1,-2.6030472E-1,1.2416345E0,4.048861E-1,-7.215072E-1,1.3223605E0,4.6925336E-1,-8.644523E-1,4.9153635E-1,-9.7136855E-1,9.091193E-1,-1.8079453E0,-1.0396051E0],"categories":[],"categories_nodes":[],"categories_segments":[],"categories_sizes":[],"default_left":[1,1,1,1,1,1,1,1,1,1,1,1,1,1,1,0,1,1,1,1,1,1,1,0,1,1,1,1,1,1,1,0,1,1,0,0,0,1,1,0,1,1,1,1,1,1,1,1,1,1,1,1,1,1,1,1,0,1,1,0,0,0,0,0,0,0,0,0,0,0,0,0,0,0,0,0,0,0,0,0,0,0,0,0,0,0,0,0,0,0,0,0,0,0,0,0,0,0,0,0,0,0,0],"id":12,"left_children":[1,3,5,7,9,11,13,15,17,19,21,23,25,27,29,-1,31,33,35,37,39,41,43,-1,45,47,49,51,53,55,57,-1,59,61,-1,-1,-1,63,65,-1,67,69,71,73,75,77,79,81,83,85,87,89,91,93,95,97,-1,99,101,-1,-1,-1,-1,-1,-1,-1,-1,-1,-1,-1,-1,-1,-1,-1,-1,-1,-1,-1,-1,-1,-1,-1,-1,-1,-1,-1,-1,-1,-1,-1,-1,-1,-1,-1,-1,-1,-1,-1,-1,-1,-1,-1,-1],"loss_changes":[3.874563E2,7.0136444E1,1.8727089E2,5.61874E1,8.8437744E1,1.10665054E2,2.0489294E2,3.659659E1,1.98225E1,6.757028E1,4.7164577E1,3.3653E1,7.457361E1,6.82735E1,6.9654915E1,0E0,2.9982262E1,1.1217186E1,1.3472155E1,4.6654182E1,4.8001892E1,2.4124554E1,2.6186703E1,0E0,3.0131989E1,7.317883E1,6.106566E1,3.632669E1,4.5523056E1,2.8297123E1,3.172947E1,0E0,2.0982254E1,5.2950554E0,0E0,0E0,0E0,2.915151E1,4.7227524E1,0E0,4.2220703E1,1.7206423E1,9.691597E0,2.1168064E1,2.2603228E1,1.441301E1,2.7003319E1,3.3411995E1,2.1183563E1,3.5735657E1,4.1970055E1,3.3699738E1,2.398227E1,4.723128E1,2.1790459E1,2.103952E1,0E0,3.0882252E1,3.1738129E0,0E0,0E0,0E0,0E0,0E0,0E0,0E0,0E0,0E0,0E0,0E0,0E0,0E0,0E0,0E0,0E0,0E0,0E0,0E0,0E0,0E0,0E0,0E0,0E0,0E0,0E0,0E0,0E0,0E0,0E0,0E0,0E0,0E0,0E0,0E0,0E0,0E0,0E0,0E0,0E0,0E0,0E0,0E0,0E0],"parents":[2147483647,0,0,1,1,2,2,3,3,4,4,5,5,6,6,7,7,8,8,9,9,10,10,11,11,12,12,13,13,14,14,16,16,17,17,18,18,19,19,20,20,21,21,22,22,24,24,25,25,26,26,27,27,28,28,29,29,30,30,32,32,33,33,37,37,38,38,40,40,41,41,42,42,43,43,44,44,45,45,46,46,47,47,48,48,49,49,50,50,51,51,52,52,53,53,54,54,55,55,57,57,58,58],"right_children":[2,4,6,8,10,12,14,16,18,20,22,24,26,28,30,-1,32,34,36,38,40,42,44,-1,46,48,50,52,54,56,58,-1,60,62,-1,-1,-1,64,66,-1,68,70,72,74,76,78,80,82,84,86,88,90,92,94,96,98,-1,100,102,-1,-1,-1,-1,-1,-1,-1,-1,-1,-1,-1,-1,-1,-1,-1,-1,-1,-1,-1,-1,-1,-1,-1,-1,-1,-1,-1,-1,-1,-1,-1,-1,-1,-1,-1,-1,-1,-1,-1,-1,-1,-1,-1,-1],"split_conditions":[4.2883563E0,4.2471327E-2,1.6817267E0,3.0444926E-1,2.9147258E0,-7.7284867E-1,4.2394876E0,-2.0008612E0,-8.930823E-3,1.28119E-3,-9.844464E-2,-1.4706814E1,-5.8491683E-1,4.3149704E-1,5.098048E0,-1.2224691E-2,-1.2111454E-1,9.424661E-1,-1.514194E0,-7.6353943E-1,-6.9310415E-1,4.432186E-3,4.4024715E0,7.0047705E-3,-4.2145818E-1,1.0058001E0,-1.0854368E1,3.8969173E0,2.5449915E0,5.4948378E0,-2.8071606E-1,-7.4561094E-3,-7.7334356E-1,1.1871369E0,-2.2419856E-3,-6.977882E-3,7.0162434E-3,9.956299E-1,-1.5552351E0,4.9136E-3,4.897338E0,1.6502702E-1,-2.2520025E0,3.1406246E-2,1.5563895E-1,5.783862E-1,5.4246444E-1,4.369462E-1,-2.69739E-1,-8.7584627E-1,1.4376765E0,-6.6862404E-1,-5.8448637E-1,3.8431468E0,-2.7950559E0,-7.377444E-2,1.4522886E-2,-1.7032218E-1,1.5470225E-1,-3.5038635E-3,1.0539051E-2,-6.8469676E-3,-1.6731558E-2,-1.6802716E-3,1.4449704E-2,-9.881274E-3,-2.249999E-3,-1.22586405E-2,-7.659177E-4,5.125557E-3,-8.342838E-3,4.0641217E-3,1.5461405E-2,-2.4656116E-3,-1.11923395E-2,1.2798098E-2,-5.6420467E-3,-1.5282133E-2,-7.363107E-3,1.5880009E-3,-8.393046E-3,-1.3035919E-2,-3.4073435E-3,1.6363462E-2,1.6157948E-3,1.0873075E-2,2.8067636E-3,3.127181E-3,-8.7779685E-4,-5.646529E-3,7.716677E-3,-2.603047E-3,1.2416345E-2,4.048861E-3,-7.215072E-3,1.3223605E-2,4.6925335E-3,-8.644523E-3,4.915363E-3,-9.713685E-3,9.091193E-3,-1.8079452E-2,-1.0396051E-2],"split_indices":[181,263,406,184,185,725,1041,724,475,749,109,820,196,424,661,0,148,49,22,827,1129,918,241,0,117,45,620,541,365,1021,1067,0,178,348,0,0,0,604,660,0,281,211,100,610,271,234,24,254,737,373,323,117,86,143,360,58,0,249,78,0,0,0,0,0,0,0,0,0,0,0,0,0,0,0,0,0,0,0,0,0,0,0,0,0,0,0,0,0,0,0,0,0,0,0,0,0,0,0,0,0,0,0,0],"split_type":[0,0,0,0,0,0,0,0,0,0,0,0,0,0,0,0,0,0,0,0,0,0,0,0,0,0,0,0,0,0,0,0,0,0,0,0,0,0,0,0,0,0,0,0,0,0,0,0,0,0,0,0,0,0,0,0,0,0,0,0,0,0,0,0,0,0,0,0,0,0,0,0,0,0,0,0,0,0,0,0,0,0,0,0,0,0,0,0,0,0,0,0,0,0,0,0,0,0,0,0,0,0,0],"sum_hessian":[4.0434646E3,1.1730702E3,2.8703945E3,1.8380995E2,9.892602E2,1.7254961E3,1.1448983E3,1.15717316E2,6.809264E1,7.658248E2,2.2343535E2,2.2365894E2,1.5018372E3,9.949364E2,1.4996191E2,1.0221172E1,1.0549614E2,4.2384365E1,2.5708279E1,3.7195474E2,3.938701E2,7.640681E1,1.4702855E2,1.598358E1,2.0767535E2,1.9991002E2,1.3019271E3,4.1243604E2,5.8250037E2,5.840219E1,9.155972E1,1.220549E1,9.329065E1,2.9915497E1,1.2468869E1,1.172624E1,1.3982038E1,4.465619E1,3.2729855E2,1.8961704E1,3.749084E2,4.0702766E1,3.570404E1,1.2129968E2,2.572886E1,9.902003E1,1.08655334E2,1.4549918E2,5.441085E1,2.2203018E2,1.079897E3,1.26756516E2,2.8567953E2,4.5526965E2,1.27230705E2,4.419584E1,1.4206352E1,4.145058E1,5.010914E1,1.1723463E1,8.156719E1,1.022178E1,1.9693718E1,2.6442305E1,1.8213886E1,1.4885938E2,1.7843916E2,3.3947852E2,3.5429882E1,2.7473717E1,1.3229049E1,1.1985857E1,2.3718184E1,7.862469E1,4.2674995E1,1.5241497E1,1.0487364E1,5.2849777E1,4.617025E1,4.770941E1,6.0945927E1,7.584064E1,6.965853E1,1.1724382E1,4.2686466E1,1.0113486E2,1.2089533E2,4.425042E2,6.3739276E2,2.2216726E1,1.04539795E2,1.0729319E1,2.749502E2,4.152996E2,3.9970066E1,7.52994E1,5.193131E1,1.997203E1,2.4223808E1,3.0216068E1,1.1234514E1,3.7882896E1,1.2226243E1],"tree_param":{"num_deleted":"0","num_feature":"4020","num_nodes":"103","size_leaf_vector":"0"}},{"base_weights":[-1.17153606E-4,-4.794265E-1,1.9584341E-1,-8.669665E-1,-3.2681093E-1,6.517436E-1,5.458468E-2,8.8966525E-1,-9.300273E-1,3.9038272E-3,-5.180513E-1,3.9205506E-1,1.1826077E0,-3.7909544E-1,2.1757369E-1,5.693468E-1,-9.964075E-1,-7.482232E-1,2.4284403E-1,-2.651904E-1,-1.0144205E0,-6.968084E-1,4.5249408E-1,-5.886627E-1,1.3294882E0,-5.346785E-1,9.478831E-1,-4.239343E-1,3.4043607E-1,-7.9432726E-1,-1.446941E0,-1.1799144E0,8.876741E-1,-9.4384915E-1,4.0979514E-1,-4.2269462E-1,4.7680256E-1,-5.043325E-1,-1.2849116E0,-1.4944934E0,6.1447036E-2,4.948979E-1,-1.048903E0,1.4661708E0,5.8704114E-1,-7.2083414E-1,2.626454E-1,7.817116E-2,1.2911528E0,3.1173304E-1,-7.232436E-1,4.2296365E-1,-3.036502E-1,6.501838E-1,-8.7182146E-1,-1.607482E0,-2.9806E-1,-1.7134792E0,-6.26397E-1,-1.377328E0,-1.7254335E-1,6.360354E-1,-1.9379002E-1,1.723888E-1,-7.564175E-1,9.958873E-1,-3.2040492E-1,4.5115444E-1,-7.7347016E-1,-2.01054E-1,-1.4151026E0,8.6122763E-1,3.359201E-1,6.3135093E-1,1.5661963E0,-7.381964E-2,1.3721287E0,-1.0524828E0,-2.2507875E-1,1.8654311E-2,1.2870828E0,1.5750581E0,4.4087106E-1,-5.8931744E-1,6.558243E-1,-4.811273E-1,-1.4453757E0,-2.2690888E-1,5.035492E-1,-8.3606243E-1,3.722068E-1],"categories":[],"categories_nodes":[],"categories_segments":[],"categories_sizes":[],"default_left":[1,1,1,1,1,1,1,0,1,1,1,1,1,1,1,0,1,1,1,1,1,1,1,0,1,1,1,1,1,1,1,1,0,1,1,1,1,1,1,0,0,1,0,1,1,1,1,0,1,1,1,1,1,0,0,0,0,0,0,0,0,0,0,0,0,0,0,0,0,0,0,0,0,0,0,0,0,0,0,0,0,0,0,0,0,0,0,0,0,0,0],"id":13,"left_children":[1,3,5,7,9,11,13,-1,15,17,19,21,23,25,27,-1,29,31,33,35,37,39,41,-1,43,45,47,49,51,53,55,57,-1,59,61,63,65,67,69,-1,-1,71,-1,73,75,77,79,-1,81,83,85,87,89,-1,-1,-1,-1,-1,-1,-1,-1,-1,-1,-1,-1,-1,-1,-1,-1,-1,-1,-1,-1,-1,-1,-1,-1,-1,-1,-1,-1,-1,-1,-1,-1,-1,-1,-1,-1,-1,-1],"loss_changes":[3.798875E2,6.913547E1,1.8484619E2,3.749559E1,5.3362465E1,9.3144165E1,1.5508292E2,0E0,3.24198E1,5.59138E1,6.682742E1,3.0420517E1,5.868283E1,1.24249725E2,1.25815346E2,0E0,2.6785583E1,5.4021202E1,4.716371E1,4.1749672E1,2.4196152E1,1.4880572E1,2.8150177E1,0E0,2.0025513E1,7.991046E1,1.8784966E1,5.6756245E1,7.1288345E1,2.4526474E1,1.6820053E1,1.6581886E1,0E0,9.599632E0,2.8483292E1,5.8475918E1,2.6274475E1,1.6818077E1,1.6228104E1,0E0,0E0,2.4331871E1,0E0,1.3469757E1,1.7568924E1,7.140123E1,2.5570831E1,0E0,1.0239296E1,2.3622637E1,3.1263428E1,6.2282837E1,5.523364E1,0E0,0E0,0E0,0E0,0E0,0E0,0E0,0E0,0E0,0E0,0E0,0E0,0E0,0E0,0E0,0E0,0E0,0E0,0E0,0E0,0E0,0E0,0E0,0E0,0E0,0E0,0E0,0E0,0E0,0E0,0E0,0E0,0E0,0E0,0E0,0E0,0E0,0E0],"parents":[2147483647,0,0,1,1,2,2,3,3,4,4,5,5,6,6,8,8,9,9,10,10,11,11,12,12,13,13,14,14,16,16,17,17,18,18,19,19,20,20,21,21,22,22,24,24,25,25,26,26,27,27,28,28,29,29,30,30,31,31,33,33,34,34,35,35,36,36,37,37,38,38,41,41,43,43,44,44,45,45,46,46,48,48,49,49,50,50,51,51,52,52],"right_children":[2,4,6,8,10,12,14,-1,16,18,20,22,24,26,28,-1,30,32,34,36,38,40,42,-1,44,46,48,50,52,54,56,58,-1,60,62,64,66,68,70,-1,-1,72,-1,74,76,78,80,-1,82,84,86,88,90,-1,-1,-1,-1,-1,-1,-1,-1,-1,-1,-1,-1,-1,-1,-1,-1,-1,-1,-1,-1,-1,-1,-1,-1,-1,-1,-1,-1,-1,-1,-1,-1,-1,-1,-1,-1,-1,-1],"split_conditions":[4.2883563E0,1.9486614E0,-3.3766454E-1,-2.1843328E0,4.7381657E-1,1.8327742E0,-6.099783E-1,8.896653E-3,-1.4861847E0,-1.1121942E-1,1.330377E0,-2.4828033E0,-2.4317565E0,1.7646017E0,6.025556E-1,5.693468E-3,1.438097E0,2.6636586E-1,-3.8913481E0,3.0420318E0,-1.3121846E-1,7.895981E-1,2.145848E0,-5.886627E-3,-2.9581046E0,1.0081463E0,-2.8368917E0,-4.346327E-1,3.7778459E0,-1.5639772E1,2.1789823E0,-8.679489E-2,8.876741E-3,5.1615596E-1,1.5692723E-1,-3.0788374E0,4.1249685E0,-8.585668E-1,-1.0111668E0,-1.4944933E-2,6.1447034E-4,-2.989077E-1,-1.048903E-2,-1.3623025E0,-1.9207952E0,-5.066346E-2,2.3654017E0,7.8171154E-4,8.630246E-1,3.438881E-2,1.7944787E0,-3.1407797E-1,2.9098778E0,6.5018376E-3,-8.718214E-3,-1.607482E-2,-2.9805999E-3,-1.7134791E-2,-6.26397E-3,-1.377328E-2,-1.7254334E-3,6.360354E-3,-1.9379001E-3,1.723888E-3,-7.564175E-3,9.958873E-3,-3.204049E-3,4.5115445E-3,-7.7347015E-3,-2.01054E-3,-1.4151026E-2,8.612276E-3,3.359201E-3,6.3135093E-3,1.5661962E-2,-7.3819637E-4,1.3721287E-2,-1.0524828E-2,-2.2507873E-3,1.8654311E-4,1.2870828E-2,1.5750581E-2,4.4087106E-3,-5.893174E-3,6.5582427E-3,-4.811273E-3,-1.4453757E-2,-2.2690888E-3,5.035492E-3,-8.360624E-3,3.722068E-3],"split_indices":[181,61,243,488,44,506,177,0,893,68,187,88,122,67,202,0,389,164,142,305,316,106,31,0,600,74,2,204,163,800,48,185,0,10,827,260,401,610,263,0,0,205,0,515,100,176,265,0,307,468,327,706,206,0,0,0,0,0,0,0,0,0,0,0,0,0,0,0,0,0,0,0,0,0,0,0,0,0,0,0,0,0,0,0,0,0,0,0,0,0,0],"split_type":[0,0,0,0,0,0,0,0,0,0,0,0,0,0,0,0,0,0,0,0,0,0,0,0,0,0,0,0,0,0,0,0,0,0,0,0,0,0,0,0,0,0,0,0,0,0,0,0,0,0,0,0,0,0,0,0,0,0,0,0,0,0,0,0,0,0,0,0,0,0,0,0,0,0,0,0,0,0,0,0,0,0,0,0,0,0,0,0,0,0,0],"sum_hessian":[4.0425525E3,1.1727124E3,2.86984E3,3.3001575E2,8.426966E2,6.7800964E2,2.1918306E3,1.0982331E1,3.1903342E2,3.0911655E2,5.335801E2,4.564578E2,2.2155183E2,5.983687E2,1.5934617E3,1.3204198E1,3.0582922E2,7.401223E1,2.3510434E2,3.5451627E2,1.7906381E2,2.3450304E1,4.330075E2,1.6734795E1,2.0481705E2,5.3610913E2,6.2259644E1,2.5573393E2,1.3377278E3,2.1303745E2,9.279176E1,5.8779774E1,1.5232453E1,2.8422554E1,2.0668178E2,2.9279453E2,6.1721718E1,6.3042923E1,1.1602089E2,1.0954842E1,1.2495461E1,4.21766E2,1.1241523E1,1.7214992E2,3.2667126E1,4.3471072E2,1.0139836E2,1.796671E1,4.4292934E1,7.394478E1,1.8178915E2,1.1860952E3,1.5163252E2,1.0470714E1,2.0256674E2,8.106485E1,1.1726917E1,2.8862274E1,2.99175E1,1.7693167E1,1.0729385E1,1.502938E2,5.638799E1,1.0537565E2,1.8741888E2,3.723059E1,2.4491129E1,1.3706412E1,4.9336514E1,1.2714581E1,1.0330631E2,1.2630541E2,2.9546057E2,1.9201868E1,1.5294806E2,1.8228743E1,1.4438382E1,2.5979257E2,1.7491815E2,8.271603E1,1.8682333E1,3.2566673E1,1.172626E1,2.0237476E1,5.3707302E1,1.3739099E2,4.4398174E1,1.3065207E2,1.0554432E3,8.4684525E1,6.6948006E1],"tree_param":{"num_deleted":"0","num_feature":"4020","num_nodes":"91","size_leaf_vector":"0"}},{"base_weights":[-1.245764E-4,-4.748471E-1,1.9393523E-1,2.1453196E-1,-5.593927E-1,3.5382982E-2,5.938853E-1,6.332032E-1,-6.859233E-1,-2.6934904E-1,-8.2760453E-1,-5.171047E-1,1.4575581E-1,7.957559E-1,-5.708188E-1,-7.3912436E-1,8.370579E-1,3.813589E-1,-1.0719403E0,1.0487964E0,-3.5259855E-1,-1.194233E0,-6.4851916E-1,3.815417E-1,-6.698692E-1,9.9784985E-2,1.0356493E0,1.0962433E0,5.213885E-1,2.420886E-2,-1.4348322E0,-3.153194E-1,1.0420419E0,-2.4332578E-1,-1.4744487E0,1.7143062E0,1.8387613E-1,1.5091937E0,-4.1026613E-1,-1.2745911E0,-5.7608634E-2,-2.1350689E-1,-9.6223384E-1,-7.3525125E-1,7.022432E-1,-9.8490316E-1,-1.9626537E-1,-2.541308E-1,2.2582147E-1,1.2995768E0,1.3794708E-1,6.533751E-1,1.3540764E0,1.800753E-1,8.924914E-1,-1.4902667E0,4.1053635E-1,-4.347822E-1,-1.6849363E0,2.4931781E-1,1.2950703E0,-5.403691E-1,3.7706828E-1,-4.95676E-1,-1.3982277E0,2.8487468E-1,-6.748074E-1,-1.3376641E0,-6.817936E-1,1.2268628E0,-2.9596624E-1,-1.3579799E0,-6.6652226E-1,1.295721E0,-4.0852743E-1,-6.4020824E-1,1.7091706E-1,3.4936893E-1,-2.0159566E-1,1.4901534E0,2.568816E-1,-4.4642236E-2,8.6224E-1,5.397591E-1,1.5190344E0,-9.243594E-2,1.0649409E0,-8.1077206E-1,1.0258042E0,-5.2695197E-1,8.8990706E-1,-1.1587422E0,-1.8312223E0],"categories":[],"categories_nodes":[],"categories_segments":[],"categories_sizes":[],"default_left":[1,1,1,1,1,1,1,1,1,1,1,1,1,1,1,0,1,0,1,1,1,1,1,1,1,1,1,1,1,1,1,0,1,0,0,0,0,0,1,1,0,1,1,0,1,1,1,1,1,1,0,1,1,1,1,0,1,0,1,0,0,0,0,0,0,0,0,0,0,0,0,0,0,0,0,0,0,0,0,0,0,0,0,0,0,0,0,0,0,0,0,0,0],"id":14,"left_children":[1,3,5,7,9,11,13,15,17,19,21,23,25,27,29,-1,31,-1,33,35,37,39,41,43,45,47,49,51,53,55,57,-1,59,-1,-1,-1,-1,-1,61,63,-1,65,67,-1,69,71,73,75,77,79,-1,81,83,85,87,-1,89,-1,91,-1,-1,-1,-1,-1,-1,-1,-1,-1,-1,-1,-1,-1,-1,-1,-1,-1,-1,-1,-1,-1,-1,-1,-1,-1,-1,-1,-1,-1,-1,-1,-1,-1,-1],"loss_changes":[3.7250433E2,6.850415E1,1.8198647E2,4.9027634E1,8.110181E1,1.25476425E2,1.9201794E2,2.5378902E1,1.7460972E1,5.564765E1,3.4855194E1,4.7293343E1,7.004782E1,5.6711548E1,6.2210052E1,0E0,1.8642303E1,0E0,9.866592E0,1.705455E1,5.1570686E1,1.6083511E1,4.984665E1,1.8574827E1,4.3555084E1,7.284046E1,1.9752708E1,3.6878265E1,4.6083534E1,4.308885E1,1.1607521E1,0E0,1.2926094E1,0E0,0E0,0E0,0E0,0E0,4.743551E1,1.521286E1,0E0,3.581767E1,2.1493362E1,0E0,2.1144506E1,1.9981033E1,3.801909E1,7.0501114E1,6.36347E1,1.251252E1,0E0,1.8061745E1,2.7132507E1,4.6260387E1,4.049193E1,0E0,2.6816822E1,0E0,8.892746E-1,0E0,0E0,0E0,0E0,0E0,0E0,0E0,0E0,0E0,0E0,0E0,0E0,0E0,0E0,0E0,0E0,0E0,0E0,0E0,0E0,0E0,0E0,0E0,0E0,0E0,0E0,0E0,0E0,0E0,0E0,0E0,0E0,0E0,0E0],"parents":[2147483647,0,0,1,1,2,2,3,3,4,4,5,5,6,6,7,7,8,8,9,9,10,10,11,11,12,12,13,13,14,14,16,16,18,18,19,19,20,20,21,21,22,22,23,23,24,24,25,25,26,26,27,27,28,28,29,29,30,30,32,32,38,38,39,39,41,41,42,42,44,44,45,45,46,46,47,47,48,48,49,49,51,51,52,52,53,53,54,54,56,56,58,58],"right_children":[2,4,6,8,10,12,14,16,18,20,22,24,26,28,30,-1,32,-1,34,36,38,40,42,44,46,48,50,52,54,56,58,-1,60,-1,-1,-1,-1,-1,62,64,-1,66,68,-1,70,72,74,76,78,80,-1,82,84,86,88,-1,90,-1,92,-1,-1,-1,-1,-1,-1,-1,-1,-1,-1,-1,-1,-1,-1,-1,-1,-1,-1,-1,-1,-1,-1,-1,-1,-1,-1,-1,-1,-1,-1,-1,-1,-1,-1],"split_conditions":[4.2883563E0,-7.819411E-1,2.0443246E0,3.559022E-1,8.341162E-1,-3.005258E-1,4.3396797E0,2.2879967E-1,-6.667575E-2,-1.4134679E0,4.4884312E-1,-4.6234947E-1,3.3549013E0,7.141973E-1,6.045084E0,-7.3912432E-3,-1.24636315E-1,3.8135888E-3,2.7508903E0,-7.975957E0,-1.141222E0,4.5220947E0,3.46468E-1,-1.5279152E0,1.6159002E-1,-6.137471E-1,5.523801E-1,1.7155957E0,6.3049555E-2,-1.9516528E-2,-3.223032E0,-3.1531937E-3,4.6486497E-1,-2.4332579E-3,-1.4744487E-2,1.7143061E-2,1.8387613E-3,1.5091936E-2,2.9960306E0,-1.1837857E0,-5.7608634E-4,4.152823E-3,8.9706324E-2,-7.3525123E-3,1.291501E-1,-2.866556E-1,-4.230189E0,-2.1669057E-1,1.7510214E0,2.7924721E0,1.3794708E-3,-3.9163584E-1,-5.293541E-1,2.6839309E0,-1.2597761E0,-1.4902666E-2,9.150704E-2,-4.347822E-3,1.1368349E-1,2.493178E-3,1.2950703E-2,-5.403691E-3,3.7706827E-3,-4.95676E-3,-1.3982276E-2,2.8487467E-3,-6.748074E-3,-1.3376641E-2,-6.8179355E-3,1.2268628E-2,-2.9596623E-3,-1.3579799E-2,-6.6652223E-3,1.2957211E-2,-4.0852744E-3,-6.4020823E-3,1.7091706E-3,3.4936892E-3,-2.0159567E-3,1.4901534E-2,2.5688158E-3,-4.4642235E-4,8.6223995E-3,5.397591E-3,1.5190343E-2,-9.2435937E-4,1.0649409E-2,-8.107721E-3,1.0258041E-2,-5.2695195E-3,8.89907E-3,-1.1587421E-2,-1.8312223E-2],"split_indices":[181,143,426,124,227,725,1041,228,284,833,68,243,225,263,681,0,908,0,167,480,1333,1,84,605,236,177,136,546,57,1152,540,0,488,0,0,0,0,0,305,308,0,709,134,0,418,276,1220,236,24,302,0,56,722,385,162,0,532,0,767,0,0,0,0,0,0,0,0,0,0,0,0,0,0,0,0,0,0,0,0,0,0,0,0,0,0,0,0,0,0,0,0,0,0],"split_type":[0,0,0,0,0,0,0,0,0,0,0,0,0,0,0,0,0,0,0,0,0,0,0,0,0,0,0,0,0,0,0,0,0,0,0,0,0,0,0,0,0,0,0,0,0,0,0,0,0,0,0,0,0,0,0,0,0,0,0,0,0,0,0,0,0,0,0,0,0,0,0,0,0,0,0,0,0,0,0,0,0,0,0,0,0,0,0,0,0,0,0,0,0],"sum_hessian":[4.0414856E3,1.1722933E3,2.8691921E3,1.2789651E2,1.0443969E3,2.0554417E3,8.137504E2,8.7506645E1,4.0389866E1,5.0273956E2,5.416573E2,3.4163782E2,1.7138038E3,6.938131E2,1.1993734E2,1.0978025E1,7.652862E1,1.0731331E1,2.9658535E1,2.9176132E1,4.7356342E2,1.7589392E2,3.6576337E2,4.942061E1,2.922172E2,1.6306772E3,8.31267E1,3.2971432E2,3.6409875E2,7.159995E1,4.8337383E1,1.1475798E1,6.505282E1,1.0221274E1,1.9437262E1,1.5933849E1,1.3242283E1,1.3471357E1,4.6009207E2,1.6416617E2,1.1727753E1,1.5395807E2,2.1180531E2,1.0737233E1,3.8683376E1,1.7483804E2,1.1737916E2,4.279524E2,1.2027249E3,6.389399E1,1.9232714E1,1.2262359E2,2.0709074E2,1.9043547E2,1.736633E2,1.3971512E1,5.7628445E1,1.0218152E1,3.811923E1,1.622043E1,4.883239E1,3.9511502E2,6.497705E1,2.3174582E1,1.4099158E2,7.418849E1,7.976958E1,8.895279E1,1.2285252E2,2.5206676E1,1.3476699E1,7.900048E1,9.5837555E1,1.398369E1,1.0339546E2,2.2399138E2,2.03961E2,9.3316925E2,2.6955557E2,5.365767E1,1.0236318E1,2.8422642E1,9.420094E1,3.5603867E1,1.7148688E2,1.4628098E2,4.4154484E1,1.223694E1,1.6142635E2,1.9464045E1,3.81644E1,1.0232779E1,2.7886452E1],"tree_param":{"num_deleted":"0","num_feature":"4020","num_nodes":"93","size_leaf_vector":"0"}},{"base_weights":[-1.2797414E-4,-4.7031578E-1,1.9203606E-1,8.5687295E-2,-5.7362825E-1,6.408987E-1,5.30229E-2,5.012565E-1,-6.177004E-1,-7.3230475E-1,-2.9274402E-2,3.924367E-1,1.1799403E0,-3.755961E-1,2.12314E-1,-1.2020566E0,6.759181E-1,-1.0256737E0,6.763425E-2,-4.2928532E-1,-1.0168198E0,5.9432936E-1,-3.552243E-1,-3.051467E-1,4.8643917E-1,-5.36255E-1,1.2959768E0,-5.3069025E-1,9.65544E-1,-3.3246705E-1,3.5636535E-1,-7.277839E-1,8.652508E-1,-1.3466356E0,-2.1330003E-1,-6.842737E-1,7.015027E-1,5.067567E-1,-5.581943E-1,4.9018618E-1,-1.0942274E0,7.0035756E-2,1.1738726E0,-5.471417E-1,5.358009E-1,-1.0345088E0,2.44252E-1,-5.0046396E-1,5.6595194E-1,1.4234359E0,5.2970576E-1,-7.163639E-1,2.627682E-1,1.4230037E0,3.280682E-1,-2.0224413E-1,-1.3472556E0,4.5869717E-1,-1.3702494E-1,-3.4725705E-1,1.041654E0,-6.7018825E-1,-1.6485716E0,-1.9660822E-1,1.3825926E0,-2.9993093E-1,-1.1092592E0,-1.2011534E0,-6.5794885E-2,5.11808E-1,-8.1933445E-1,4.0669632E-1,1.5294976E0,-2.372718E-1,-1.0997607E0,1.2721715E0,-5.524169E-1,-1.4564055E-1,-1.702135E0,7.900062E-1,-8.6808145E-1,-1.7182834E0,2.189903E-1,8.5028476E-1,3.379526E-1,7.6741636E-1,1.5926771E0,1.1664302E0,-4.9970803E-1,-1.0653032E0,-2.6144275E-1,2.1119902E-2,1.2720728E0,6.703888E-1,1.6974099E0,-7.407564E-1,1.0178537E0,3.458727E-1,-3.9966834E-1,-1.6235534E0,-5.707389E-1,7.918476E-2,5.949014E-1,-7.872569E-1,2.1408834E-1],"categories":[],"categories_nodes":[],"categories_segments":[],"categories_sizes":[],"default_left":[1,1,1,1,1,1,1,1,1,1,1,1,1,1,1,0,1,1,1,1,1,1,1,1,1,0,1,1,1,1,1,0,1,1,0,0,0,1,1,0,1,1,1,1,1,1,1,1,1,1,1,1,1,1,1,1,1,1,1,0,0,0,0,0,0,0,0,0,0,0,0,0,0,0,0,0,0,0,0,0,0,0,0,0,0,0,0,0,0,0,0,0,0,0,0,0,0,0,0,0,0,0,0,0,0],"id":15,"left_children":[1,3,5,7,9,11,13,15,17,19,21,23,25,27,29,-1,31,33,35,37,39,41,43,45,47,-1,49,51,53,55,57,-1,59,61,-1,-1,-1,63,65,-1,67,69,71,73,75,77,79,81,83,85,87,89,91,93,95,97,99,101,103,-1,-1,-1,-1,-1,-1,-1,-1,-1,-1,-1,-1,-1,-1,-1,-1,-1,-1,-1,-1,-1,-1,-1,-1,-1,-1,-1,-1,-1,-1,-1,-1,-1,-1,-1,-1,-1,-1,-1,-1,-1,-1,-1,-1,-1,-1],"loss_changes":[3.6524405E2,6.741708E1,1.7902325E2,5.4282055E1,8.541797E1,9.040625E1,1.4974785E2,3.5507553E1,1.9367983E1,6.559076E1,4.5802597E1,3.0700386E1,4.322461E1,1.2413002E2,1.2558842E2,0E0,2.891114E1,1.1010242E1,1.3202802E1,4.5242203E1,4.6527985E1,2.3426071E1,2.5589579E1,2.2669426E1,3.253257E1,0E0,1.8812103E1,7.8763504E1,1.7601429E1,4.3980103E1,6.392975E1,0E0,2.0515305E1,5.2000504E0,0E0,0E0,0E0,2.8378944E1,4.6344337E1,0E0,4.1191925E1,1.679679E1,9.386414E0,2.0666027E1,2.2115202E1,1.4128445E1,2.0546814E1,2.7688885E1,2.4398804E1,1.7781921E1,2.0353355E1,6.8372894E1,2.4819138E1,6.2499466E0,2.0796814E1,3.2381077E1,7.2065964E0,5.4119705E1,4.995294E1,0E0,0E0,0E0,0E0,0E0,0E0,0E0,0E0,0E0,0E0,0E0,0E0,0E0,0E0,0E0,0E0,0E0,0E0,0E0,0E0,0E0,0E0,0E0,0E0,0E0,0E0,0E0,0E0,0E0,0E0,0E0,0E0,0E0,0E0,0E0,0E0,0E0,0E0,0E0,0E0,0E0,0E0,0E0,0E0,0E0,0E0],"parents":[2147483647,0,0,1,1,2,2,3,3,4,4,5,5,6,6,7,7,8,8,9,9,10,10,11,11,12,12,13,13,14,14,16,16,17,17,18,18,19,19,20,20,21,21,22,22,23,23,24,24,26,26,27,27,28,28,29,29,30,30,32,32,33,33,37,37,38,38,40,40,41,41,42,42,43,43,44,44,45,45,46,46,47,47,48,48,49,49,50,50,51,51,52,52,53,53,54,54,55,55,56,56,57,57,58,58],"right_children":[2,4,6,8,10,12,14,16,18,20,22,24,26,28,30,-1,32,34,36,38,40,42,44,46,48,-1,50,52,54,56,58,-1,60,62,-1,-1,-1,64,66,-1,68,70,72,74,76,78,80,82,84,86,88,90,92,94,96,98,100,102,104,-1,-1,-1,-1,-1,-1,-1,-1,-1,-1,-1,-1,-1,-1,-1,-1,-1,-1,-1,-1,-1,-1,-1,-1,-1,-1,-1,-1,-1,-1,-1,-1,-1,-1,-1,-1,-1,-1,-1,-1,-1,-1,-1,-1,-1,-1],"split_conditions":[4.2883563E0,4.2471327E-2,-3.3766454E-1,3.0444926E-1,2.9147258E0,1.7392848E0,-6.1564595E-1,-2.0008612E0,-8.930823E-3,1.28119E-3,-9.844464E-2,-1.6673598E0,-2.6128201E0,1.7646017E0,1.042305E0,-1.20205665E-2,-1.2111454E-1,9.424661E-1,-1.514194E0,-7.6353943E-1,-6.9310415E-1,4.432186E-3,4.4024715E0,4.7107603E-2,-2.2593257E0,-5.36255E-3,-2.78517E0,1.0081463E0,-4.0703642E-1,1.1043952E0,3.382398E0,-7.277839E-3,-7.7334356E-1,1.1871369E0,-2.1330004E-3,-6.842737E-3,7.0150266E-3,9.1548014E-1,-1.8423202E0,4.901862E-3,4.897338E0,1.6502702E-1,-2.2520025E0,3.1406246E-2,1.5563895E-1,-9.160228E-4,1.0774318E0,6.371745E-1,-1.7260045E-2,4.288186E0,-6.6810083E-1,-1.2755963E-1,2.3654017E0,8.332038E-1,-2.650598E0,-4.3656307E-1,1.6701348E0,4.9187052E-1,2.2895617E0,-3.4725703E-3,1.0416539E-2,-6.7018825E-3,-1.6485715E-2,-1.966082E-3,1.3825925E-2,-2.9993092E-3,-1.1092592E-2,-1.2011534E-2,-6.5794884E-4,5.1180795E-3,-8.193344E-3,4.066963E-3,1.5294976E-2,-2.372718E-3,-1.0997606E-2,1.2721715E-2,-5.524169E-3,-1.4564055E-3,-1.7021349E-2,7.900062E-3,-8.680814E-3,-1.7182834E-2,2.1899028E-3,8.5028475E-3,3.379526E-3,7.674163E-3,1.592677E-2,1.1664302E-2,-4.99708E-3,-1.0653032E-2,-2.6144274E-3,2.1119902E-4,1.2720727E-2,6.703888E-3,1.6974099E-2,-7.4075637E-3,1.0178537E-2,3.458727E-3,-3.9966833E-3,-1.6235534E-2,-5.707389E-3,7.918476E-4,5.949014E-3,-7.872568E-3,2.1408834E-3],"split_indices":[181,263,243,184,185,546,177,724,475,749,109,102,162,67,242,0,148,49,22,827,1129,918,241,129,68,0,600,74,249,216,83,0,178,348,0,0,0,584,160,0,281,211,100,610,271,64,429,106,404,481,244,236,265,90,2,204,445,466,226,0,0,0,0,0,0,0,0,0,0,0,0,0,0,0,0,0,0,0,0,0,0,0,0,0,0,0,0,0,0,0,0,0,0,0,0,0,0,0,0,0,0,0,0,0,0],"split_type":[0,0,0,0,0,0,0,0,0,0,0,0,0,0,0,0,0,0,0,0,0,0,0,0,0,0,0,0,0,0,0,0,0,0,0,0,0,0,0,0,0,0,0,0,0,0,0,0,0,0,0,0,0,0,0,0,0,0,0,0,0,0,0,0,0,0,0,0,0,0,0,0,0,0,0,0,0,0,0,0,0,0,0,0,0,0,0,0,0,0,0,0,0,0,0,0,0,0,0,0,0,0,0,0,0],"sum_hessian":[4.0404045E3,1.1717976E3,2.868607E3,1.8364339E2,9.881542E2,6.774768E2,2.1911301E3,1.1562074E2,6.8022644E1,7.648568E2,2.2329735E2,4.6491174E2,2.1256506E2,5.93307E2,1.597823E3,1.0206264E1,1.0541448E2,4.232836E1,2.5694284E1,3.7159872E2,3.9325812E2,7.636785E1,1.469295E2,5.4942482E1,4.0996927E2,1.3232533E1,1.9933252E2,5.323487E2,6.0958366E1,3.3386954E2,1.2639535E3,1.2190543E1,9.322394E1,2.9869518E1,1.2458844E1,1.1716458E1,1.3977826E1,4.4626053E1,3.269727E2,1.8952358E1,3.7430576E2,4.0683598E1,3.5684254E1,1.21208435E2,2.5721066E1,2.3225779E1,3.1716702E1,3.0172878E1,3.797964E2,1.7016945E2,2.9163078E1,4.3147766E2,1.00870995E2,3.477278E1,2.6185581E1,2.9696124E2,3.69083E1,1.0468926E3,2.1706085E2,1.1717196E1,8.150674E1,1.0211547E1,1.9657972E1,2.518003E1,1.9446024E1,2.236845E2,1.0328819E2,3.389022E2,3.5403557E1,2.7465385E1,1.321821E1,1.1981225E1,2.370303E1,7.8577225E1,4.2631214E1,1.5239695E1,1.0481372E1,1.0484715E1,1.2741063E1,2.147165E1,1.0245053E1,1.0689856E1,1.9483023E1,1.678033E2,2.1199307E2,3.6032658E1,1.341368E2,1.7936E1,1.12270775E1,2.4342278E2,1.880549E2,8.220931E1,1.8661678E1,1.0210756E1,2.4562027E1,1.0241875E1,1.5943707E1,7.843819E1,2.1852306E2,2.641764E1,1.049066E1,2.7690906E2,7.699836E2,7.5675E1,1.4138585E2],"tree_param":{"num_deleted":"0","num_feature":"4020","num_nodes":"105","size_leaf_vector":"0"}},{"base_weights":[-1.343025E-4,-4.6582416E-1,1.9016977E-1,-8.458766E-1,-3.1627262E-1,-1.2031557E-2,4.9491963E-1,8.905222E-1,-9.083438E-1,9.113459E-3,-5.044706E-1,-6.5111315E-1,8.3461255E-2,6.556269E-1,-5.684308E-1,5.6861335E-1,-9.738201E-1,-7.8452426E-1,2.2917542E-1,-2.5629774E-1,-9.922263E-1,4.022475E-1,-7.8934777E-1,-4.704348E-1,1.6874515E-1,9.6083635E-1,4.3852848E-1,2.6705846E-1,-1.0987177E0,-7.739672E-1,